{"learner":{"attributes":{"scikit_learn":"{\"_estimator_type\": \"classifier\"}"},"feature_names":["GP","GS","MP","FG","FGA","2P","2PA","3P","3PA","FT","FTA","ORB","DRB","TRB","AST","STL","BLK","TOV","PF","PTS","FG%","2P%","3P%","FT%","TS%","eFG%"],"feature_types":["int","int","int","int","int","int","int","int","int","int","int","int","int","int","int","int","int","int","int","int","float","float","float","float","float","float"],"gradient_booster":{"model":{"cats":{"enc":[],"feature_segments":[],"sorted_idx":[]},"gbtree_model_param":{"num_parallel_tree":"1","num_trees":"300"},"iteration_indptr":[0,1,2,3,4,5,6,7,8,9,10,11,12,13,14,15,16,17,18,19,20,21,22,23,24,25,26,27,28,29,30,31,32,33,34,35,36,37,38,39,40,41,42,43,44,45,46,47,48,49,50,51,52,53,54,55,56,57,58,59,60,61,62,63,64,65,66,67,68,69,70,71,72,73,74,75,76,77,78,79,80,81,82,83,84,85,86,87,88,89,90,91,92,93,94,95,96,97,98,99,100,101,102,103,104,105,106,107,108,109,110,111,112,113,114,115,116,117,118,119,120,121,122,123,124,125,126,127,128,129,130,131,132,133,134,135,136,137,138,139,140,141,142,143,144,145,146,147,148,149,150,151,152,153,154,155,156,157,158,159,160,161,162,163,164,165,166,167,168,169,170,171,172,173,174,175,176,177,178,179,180,181,182,183,184,185,186,187,188,189,190,191,192,193,194,195,196,197,198,199,200,201,202,203,204,205,206,207,208,209,210,211,212,213,214,215,216,217,218,219,220,221,222,223,224,225,226,227,228,229,230,231,232,233,234,235,236,237,238,239,240,241,242,243,244,245,246,247,248,249,250,251,252,253,254,255,256,257,258,259,260,261,262,263,264,265,266,267,268,269,270,271,272,273,274,275,276,277,278,279,280,281,282,283,284,285,286,287,288,289,290,291,292,293,294,295,296,297,298,299,300],"tree_info":[0,0,0,0,0,0,0,0,0,0,0,0,0,0,0,0,0,0,0,0,0,0,0,0,0,0,0,0,0,0,0,0,0,0,0,0,0,0,0,0,0,0,0,0,0,0,0,0,0,0,0,0,0,0,0,0,0,0,0,0,0,0,0,0,0,0,0,0,0,0,0,0,0,0,0,0,0,0,0,0,0,0,0,0,0,0,0,0,0,0,0,0,0,0,0,0,0,0,0,0,0,0,0,0,0,0,0,0,0,0,0,0,0,0,0,0,0,0,0,0,0,0,0,0,0,0,0,0,0,0,0,0,0,0,0,0,0,0,0,0,0,0,0,0,0,0,0,0,0,0,0,0,0,0,0,0,0,0,0,0,0,0,0,0,0,0,0,0,0,0,0,0,0,0,0,0,0,0,0,0,0,0,0,0,0,0,0,0,0,0,0,0,0,0,0,0,0,0,0,0,0,0,0,0,0,0,0,0,0,0,0,0,0,0,0,0,0,0,0,0,0,0,0,0,0,0,0,0,0,0,0,0,0,0,0,0,0,0,0,0,0,0,0,0,0,0,0,0,0,0,0,0,0,0,0,0,0,0,0,0,0,0,0,0,0,0,0,0,0,0,0,0,0,0,0,0,0,0,0,0,0,0,0,0,0,0,0,0,0,0,0,0,0,0,0,0,0,0,0,0],"trees":[{"base_weights":[-4.9770883E-8,-8.823392E-1,6.2274456E-1,-1.1700937E0,7.9949045E-1,-3.1901237E-1,1.1154308E0,-1.7649323E0,-7.871423E-1,-5.225807E-1,1.0870252E0,-1.2174251E0,1.6513307E-1,-5.294118E-1,1.1673143E0,4.366327E-1,-1.8705873E0,-3.108393E-1,-1.4087185E0,-8.49518E-2,1.4160147E0,-1.5851362E0,6.787911E-1,-6.2667465E-1,6.654995E-1,7.2133845E-1,1.3892443E0,-4.4000003E-1,4.9219075E-1,-5.77594E-1,-2.0865452E-1,-4.1571483E-1,6.153255E-2,-4.7977915E-1,-6.0628176E-2,-5.04E-1,2.732051E-1,3.5453476E-3,4.6549517E-1,1.9278985E-2,-5.461698E-1,-4.4000003E-1,3.936508E-1,-5.739131E-1,4.2666264E-2,-2.2743991E-1,2.8285187E-1,1.4385247E-1,5.0129086E-1,-2.9733312E-1,4.4253936E-1],"categories":[],"categories_nodes":[],"categories_segments":[],"categories_sizes":[],"default_left":[0,0,0,0,0,0,0,0,0,0,0,0,0,0,0,0,0,0,0,0,0,0,0,0,0,0,0,0,0,0,0,0,0,0,0,0,0,0,0,0,0,0,0,0,0,0,0,0,0,0,0],"id":0,"left_children":[1,3,5,7,9,11,13,15,17,-1,19,21,23,-1,25,27,29,31,33,35,37,39,41,43,45,47,49,-1,-1,-1,-1,-1,-1,-1,-1,-1,-1,-1,-1,-1,-1,-1,-1,-1,-1,-1,-1,-1,-1,-1,-1],"loss_changes":[6.533221E2,2.3902225E2,3.2377518E2,9.4396484E1,5.485029E1,1.04673996E2,7.047717E1,3.8936462E1,7.583023E1,0E0,2.5459534E1,5.980535E1,6.2603508E1,0E0,4.3571533E1,2.146162E1,8.729187E0,8.188111E1,2.5307663E1,2.5904022E1,9.765778E0,2.7628586E1,2.1466343E1,6.0897167E1,3.888122E1,3.4041428E1,6.2718445E1,0E0,0E0,0E0,0E0,0E0,0E0,0E0,0E0,0E0,0E0,0E0,0E0,0E0,0E0,0E0,0E0,0E0,0E0,0E0,0E0,0E0,0E0,0E0,0E0],"parents":[2147483647,0,0,1,1,2,2,3,3,4,4,5,5,6,6,7,7,8,8,10,10,11,11,12,12,14,14,15,15,16,16,17,17,18,18,19,19,20,20,21,21,22,22,23,23,24,24,25,25,26,26],"right_children":[2,4,6,8,10,12,14,16,18,-1,20,22,24,-1,26,28,30,32,34,36,38,40,42,44,46,48,50,-1,-1,-1,-1,-1,-1,-1,-1,-1,-1,-1,-1,-1,-1,-1,-1,-1,-1,-1,-1,-1,-1,-1,-1],"split_conditions":[3.08E2,4.9E1,4.42E-1,4.38E-1,1.99E2,6E0,5.25E-1,4.8E1,7.3E1,-5.225807E-1,6.01E-1,1.25E3,3.78E2,-5.294118E-1,1.055E3,1.12E2,2.5E1,9E0,9.2E1,7.7E1,1.6E1,6.71E-1,1.9E1,4.14E-1,1.03E2,1.18E2,1.18E2,-4.4000003E-1,4.9219075E-1,-5.77594E-1,-2.0865452E-1,-4.1571483E-1,6.153255E-2,-4.7977915E-1,-6.0628176E-2,-5.04E-1,2.732051E-1,3.5453476E-3,4.6549517E-1,1.9278985E-2,-5.461698E-1,-4.4000003E-1,3.936508E-1,-5.739131E-1,4.2666264E-2,-2.2743991E-1,2.8285187E-1,1.4385247E-1,5.0129086E-1,-2.9733312E-1,4.4253936E-1],"split_indices":[4,16,20,20,4,16,24,8,18,0,24,2,4,0,2,10,16,16,14,16,15,23,11,20,12,14,13,0,0,0,0,0,0,0,0,0,0,0,0,0,0,0,0,0,0,0,0,0,0,0,0],"split_type":[0,0,0,0,0,0,0,0,0,0,0,0,0,0,0,0,0,0,0,0,0,0,0,0,0,0,0,0,0,0,0,0,0,0,0,0,0,0,0,0,0,0,0,0,0,0,0,0,0,0,0],"sum_hessian":[1.187E3,4.9096152E2,6.9603845E2,4.194923E2,7.146923E1,2.3918846E2,4.5684998E2,1.6288077E2,2.5661154E2,6.75E0,6.471923E1,8.322884E1,1.5595961E2,7.5E0,4.4934998E2,7.3153844E0,1.5556538E2,1.4613269E2,1.1047884E2,1.4348077E1,5.037115E1,6.9848076E1,1.3380769E1,6.029423E1,9.566538E1,1.5072115E2,2.9862885E2,2.75E0,4.5653844E0,1.480327E2,7.532692E0,4.6848076E1,9.9284615E1,9.513077E1,1.5348077E1,5.25E0,9.098077E0,4.532692E0,4.583846E1,8.815384E0,6.1032692E1,2.75E0,1.0630769E1,2.2E1,3.829423E1,1.5315384E1,8.035E1,1.2132884E2,2.9392307E1,1.0032692E1,2.8859613E2],"tree_param":{"num_deleted":"0","num_feature":"26","num_nodes":"51","size_leaf_vector":"1"}},{"base_weights":[-3.999485E-3,-6.2448764E-1,7.06595E-1,-1.1042591E0,-2.4149767E-1,-8.9163935E-1,7.7340305E-1,-1.4470203E0,-4.716382E-1,-4.2509294E-1,6.046E-1,-4.935873E-1,4.1384307E-1,1.9037928E-1,9.248207E-1,5.178387E-1,-1.4972483E0,3.153891E-1,-1.1293385E0,-5.6602883E-1,5.418559E-1,7.731663E-1,-4.592535E-1,-2.982532E-1,8.031956E-1,3.358462E-1,1.1069349E0,-1.115937E-1,-4.6221337E-1,1.9622155E-1,-4.5822027E-1,-2.6713816E-2,-4.5648947E-1,-4.079591E-1,-1.1216172E-1,-4.4176024E-1,2.3329695E-1,2.7903676E-1,-4.3724695E-1,-2.4964197E-1,1.923515E-1,3.9490193E-1,1.8568575E-2,-5.139818E-2,2.514462E-1,-4.489007E-2,3.4758538E-1],"categories":[],"categories_nodes":[],"categories_segments":[],"categories_sizes":[],"default_left":[0,0,0,0,0,0,0,0,0,0,0,0,0,0,0,0,0,0,0,0,0,0,0,0,0,0,0,0,0,0,0,0,0,0,0,0,0,0,0,0,0,0,0,0,0,0,0],"id":1,"left_children":[1,3,5,7,9,11,13,15,17,19,21,-1,-1,23,25,-1,27,29,31,33,35,37,-1,39,41,43,45,-1,-1,-1,-1,-1,-1,-1,-1,-1,-1,-1,-1,-1,-1,-1,-1,-1,-1,-1,-1],"loss_changes":[5.0307678E2,1.1165524E2,5.748047E1,5.7887573E1,5.3071968E1,3.9592422E1,4.4941223E1,3.0429321E1,5.0257294E1,3.8459354E1,2.3153864E1,0E0,0E0,3.216755E1,4.3116486E1,0E0,7.8643494E0,2.8877611E1,2.1385567E1,3.683912E1,1.8304474E1,2.1394012E1,0E0,3.0652647E1,1.8014818E1,2.4904121E1,2.0257141E1,0E0,0E0,0E0,0E0,0E0,0E0,0E0,0E0,0E0,0E0,0E0,0E0,0E0,0E0,0E0,0E0,0E0,0E0,0E0,0E0],"parents":[2147483647,0,0,1,1,2,2,3,3,4,4,5,5,6,6,7,7,8,8,9,9,10,10,13,13,14,14,16,16,17,17,18,18,19,19,20,20,21,21,23,23,24,24,25,25,26,26],"right_children":[2,4,6,8,10,12,14,16,18,20,22,-1,-1,24,26,-1,28,30,32,34,36,38,-1,40,42,44,46,-1,-1,-1,-1,-1,-1,-1,-1,-1,-1,-1,-1,-1,-1,-1,-1,-1,-1,-1,-1],"split_conditions":[1.6E2,1E1,8.6E1,1.32E2,9.4E1,1.4E1,5.1E-1,1.6E1,3.25E2,6.1E1,1.45E2,-4.935873E-1,4.1384307E-1,1.76E2,2.6E1,5.178387E-1,2E1,5.44E-1,5E1,4.7E1,1.6E1,1.73E2,-4.592535E-1,8.6E1,1.109E3,1.77E2,7.9E1,-1.115937E-1,-4.6221337E-1,1.9622155E-1,-4.5822027E-1,-2.6713816E-2,-4.5648947E-1,-4.079591E-1,-1.1216172E-1,-4.4176024E-1,2.3329695E-1,2.7903676E-1,-4.3724695E-1,-2.4964197E-1,1.923515E-1,3.9490193E-1,1.8568575E-2,-5.139818E-2,2.514462E-1,-4.489007E-2,3.4758538E-1],"split_indices":[3,16,12,3,14,16,25,0,4,16,8,0,0,10,15,0,14,21,18,9,14,14,0,18,2,12,10,0,0,0,0,0,0,0,0,0,0,0,0,0,0,0,0,0,0,0,0],"split_type":[0,0,0,0,0,0,0,0,0,0,0,0,0,0,0,0,0,0,0,0,0,0,0,0,0,0,0,0,0,0,0,0,0,0,0,0,0,0,0,0,0,0,0,0,0,0,0],"sum_hessian":[1.1389817E3,6.081066E2,5.30875E2,2.691097E2,3.3899692E2,2.0805399E1,5.100696E2,1.737063E2,9.5403404E1,2.789623E2,6.0034622E1,1.58284235E1,4.976976E0,1.05624985E2,4.044446E2,2.1868415E0,1.7151945E2,4.366855E1,5.173485E1,2.4383691E2,3.5125385E1,5.6233627E1,3.8009942E0,5.9052475E1,4.657251E1,9.619263E1,3.0825198E2,6.733934E0,1.6478552E2,3.7433743E1,6.2348084E0,1.4502841E1,3.7232014E1,4.6336235E1,1.9750069E2,3.1312244E0,3.1994164E1,5.3081657E1,3.1519704E0,3.7726337E1,2.1326136E1,2.7063118E1,1.9509392E1,4.8192364E1,4.8000263E1,1.2102739E1,2.9614926E2],"tree_param":{"num_deleted":"0","num_feature":"26","num_nodes":"47","size_leaf_vector":"1"}},{"base_weights":[-6.80057E-3,-5.897181E-1,4.3997473E-1,-1.1496159E0,-3.904573E-1,3.676451E-2,7.26745E-1,-3.519705E-1,-1.3205782E0,-4.2581895E-1,-3.0627498E-1,-3.936163E-1,5.334249E-1,4.0043256E-1,9.765011E-1,-3.9969593E-1,1.0092365E0,-4.385219E-1,3.3348594E-2,2.1284354E-1,-5.4254466E-1,-7.720592E-1,3.863832E-1,-6.2191397E-1,8.4746933E-1,-2.3110257E-1,6.2286943E-1,-6.784692E-1,1.0222485E0,-3.2964796E-1,5.266288E-1,-3.5095364E-1,3.9428172E-1,-4.693528E-1,1.0919187E-1,-2.2889046E-1,8.645678E-2,-3.2860762E-1,1.5421969E-1,2.2922288E-1,-1.9742173E-1,2.3180333E-1,-3.4797996E-1,2.7897978E-1,-4.2509952E-1,-4.1147298E-1,2.4471532E-1,3.000302E-2,2.9726645E-1,-5.163597E-1,2.8881603E-1,-5.6351524E-2,3.2065496E-1],"categories":[],"categories_nodes":[],"categories_segments":[],"categories_sizes":[],"default_left":[0,0,0,0,0,0,0,0,0,0,0,0,0,0,0,0,0,0,0,0,0,0,0,0,0,0,0,0,0,0,0,0,0,0,0,0,0,0,0,0,0,0,0,0,0,0,0,0,0,0,0,0,0],"id":2,"left_children":[1,3,5,7,9,11,13,15,17,-1,19,21,23,25,27,-1,29,-1,31,33,35,37,39,41,43,45,47,49,51,-1,-1,-1,-1,-1,-1,-1,-1,-1,-1,-1,-1,-1,-1,-1,-1,-1,-1,-1,-1,-1,-1,-1,-1],"loss_changes":[2.7836462E2,5.1290985E1,6.99396E1,1.6064545E1,2.932301E1,5.4191875E1,2.8422897E1,3.1713766E1,1.905664E1,0E0,3.92222E1,4.04066E1,4.3220394E1,2.1914797E1,1.58033905E1,0E0,1.7811762E1,0E0,1.7516403E1,2.7550167E1,4.0394447E1,3.874237E1,1.8276056E1,2.0198505E1,1.8673431E1,5.018346E1,2.2006588E1,1.1872516E1,1.1174774E1,0E0,0E0,0E0,0E0,0E0,0E0,0E0,0E0,0E0,0E0,0E0,0E0,0E0,0E0,0E0,0E0,0E0,0E0,0E0,0E0,0E0,0E0,0E0,0E0],"parents":[2147483647,0,0,1,1,2,2,3,3,4,4,5,5,6,6,7,7,8,8,10,10,11,11,12,12,13,13,14,14,16,16,18,18,19,19,20,20,21,21,22,22,23,23,24,24,25,25,26,26,27,27,28,28],"right_children":[2,4,6,8,10,12,14,16,18,-1,20,22,24,26,28,-1,30,-1,32,34,36,38,40,42,44,46,48,50,52,-1,-1,-1,-1,-1,-1,-1,-1,-1,-1,-1,-1,-1,-1,-1,-1,-1,-1,-1,-1,-1,-1,-1,-1],"split_conditions":[4.12E2,5.27E-1,1.36E2,7.37E2,1.1E1,1.23E2,1.093E3,4.86E-1,3.7E1,-4.2581895E-1,6E1,3E1,3.28E-1,5.9E1,1.9E1,-3.9969593E-1,5.3E1,-4.385219E-1,9.7E1,4E1,1.59E2,5.7E1,6.2E1,4.96E-1,5.74E-1,5.95E-1,7.3E1,8.77E-1,3.3E1,-3.2964796E-1,5.266288E-1,-3.5095364E-1,3.9428172E-1,-4.693528E-1,1.0919187E-1,-2.2889046E-1,8.645678E-2,-3.2860762E-1,1.5421969E-1,2.2922288E-1,-1.9742173E-1,2.3180333E-1,-3.4797996E-1,2.7897978E-1,-4.2509952E-1,-4.1147298E-1,2.4471532E-1,3.000302E-2,2.9726645E-1,-5.163597E-1,2.8881603E-1,-5.6351524E-2,3.2065496E-1],"split_indices":[19,24,12,2,11,5,2,21,0,0,18,11,22,17,11,0,17,0,5,8,12,15,17,24,21,25,8,23,0,0,0,0,0,0,0,0,0,0,0,0,0,0,0,0,0,0,0,0,0,0,0,0,0],"split_type":[0,0,0,0,0,0,0,0,0,0,0,0,0,0,0,0,0,0,0,0,0,0,0,0,0,0,0,0,0,0,0,0,0,0,0,0,0,0,0,0,0,0,0,0,0,0,0,0,0,0,0,0,0],"sum_hessian":[1.0668562E3,4.6276138E2,6.0409485E2,1.2021184E2,3.4254953E2,2.5154332E2,3.5255154E2,2.1757656E1,9.845418E1,2.4706564E1,3.17843E2,1.3487497E2,1.1666836E2,1.5397835E2,1.985732E2,1.2660623E1,9.0970335E0,8.908634E1,9.367837E0,9.944566E1,2.1839731E2,9.082052E1,4.405444E1,2.4725462E1,9.1942894E1,4.00971E1,1.1388125E2,4.9693694E0,1.9360382E2,2.2547054E0,6.8423276E0,4.875197E0,4.4926405E0,7.0603604E0,9.238531E1,1.7266473E2,4.5732582E1,7.269512E1,1.8125404E1,3.255165E1,1.15027895E1,6.761896E0,1.7963566E1,8.928096E1,2.6619313E0,1.9041655E1,2.1055445E1,4.7569313E1,6.6311935E1,3.0089083E0,1.9604613E0,7.066937E0,1.8653688E2],"tree_param":{"num_deleted":"0","num_feature":"26","num_nodes":"53","size_leaf_vector":"1"}},{"base_weights":[-8.302615E-3,-6.4948887E-1,2.8260124E-1,-2.3026577E-1,-1.0325875E0,4.126447E-2,5.9776586E-1,-1.0288709E0,1.1095707E-1,-1.0717372E0,3.645007E-1,1.2076868E-1,-1.5090349E0,-4.279156E-1,6.8177634E-1,5.7885695E-1,-3.9024296E-1,-4.1804287E-1,2.976955E-1,-1.2244802E0,-4.602916E-1,-1.1883214E0,1.965167E-1,-5.54941E-1,8.395687E-2,-1.3407586E0,5.6386757E-1,7.0568496E-1,-5.9261256E-1,3.6302298E-1,-2.554468E-1,-2.3281631E-1,1.434183E-1,-4.0759158E-1,-2.5057405E-1,-4.331816E-1,8.5811555E-2,4.572325E-1,-4.902785E-1,1.1702337E-1,-9.997543E-2,-5.404135E-1,1.8777263E-1,-3.8385603E-1,2.7558276E-1,-4.6675152E-1,2.2007728E-1],"categories":[],"categories_nodes":[],"categories_segments":[],"categories_sizes":[],"default_left":[0,0,0,0,0,0,0,0,0,0,0,0,0,0,0,0,0,0,0,0,0,0,0,0,0,0,0,0,0,0,0,0,0,0,0,0,0,0,0,0,0,0,0,0,0,0,0],"id":3,"left_children":[1,3,5,7,9,11,13,15,17,19,-1,21,23,25,27,29,-1,-1,31,33,35,37,39,-1,-1,41,43,45,-1,-1,-1,-1,-1,-1,-1,-1,-1,-1,-1,-1,-1,-1,-1,-1,-1,-1,-1],"loss_changes":[1.8543123E2,4.959224E1,5.199279E1,4.0835686E1,1.55420685E1,4.8052723E1,2.5841255E1,2.035408E1,3.0082357E1,1.4341324E1,0E0,3.6959244E1,1.2112267E1,2.1634895E1,1.8829262E1,7.5112906E0,0E0,0E0,1.872409E1,5.5017395E0,2.5006922E1,2.7166431E1,3.611879E1,0E0,0E0,1.2274342E1,8.863568E0,1.8353683E1,0E0,0E0,0E0,0E0,0E0,0E0,0E0,0E0,0E0,0E0,0E0,0E0,0E0,0E0,0E0,0E0,0E0,0E0,0E0],"parents":[2147483647,0,0,1,1,2,2,3,3,4,4,5,5,6,6,7,7,8,8,9,9,11,11,12,12,13,13,14,14,15,15,18,18,19,19,20,20,21,21,22,22,25,25,26,26,27,27],"right_children":[2,4,6,8,10,12,14,16,18,20,-1,22,24,26,28,30,-1,-1,32,34,36,38,40,-1,-1,42,44,46,-1,-1,-1,-1,-1,-1,-1,-1,-1,-1,-1,-1,-1,-1,-1,-1,-1,-1,-1],"split_conditions":[1.32E2,8.03E2,1.82E2,4.4E-1,8.1E1,2.95E2,5.32E-1,2.5E-1,1.9E1,1.41E2,3.645007E-1,1.7E1,5.78E-1,1.66E2,1.11E2,1.47E2,-3.9024296E-1,-4.1804287E-1,1.91E2,1.02E3,2.9E1,9E0,1.63E2,-5.54941E-1,8.395687E-2,9.7E1,4.77E2,1.2E1,-5.9261256E-1,3.6302298E-1,-2.554468E-1,-2.3281631E-1,1.434183E-1,-4.0759158E-1,-2.5057405E-1,-4.331816E-1,8.5811555E-2,4.572325E-1,-4.902785E-1,1.1702337E-1,-9.997543E-2,-5.404135E-1,1.8777263E-1,-3.8385603E-1,2.7558276E-1,-4.6675152E-1,2.2007728E-1],"split_indices":[3,2,3,20,15,6,24,22,14,12,0,15,21,10,18,6,0,0,4,2,15,11,8,0,0,18,4,11,0,0,0,0,0,0,0,0,0,0,0,0,0,0,0,0,0,0,0],"split_type":[0,0,0,0,0,0,0,0,0,0,0,0,0,0,0,0,0,0,0,0,0,0,0,0,0,0,0,0,0,0,0,0,0,0,0,0,0,0,0,0,0,0,0,0,0,0,0],"sum_hessian":[9.9215967E2,3.0926675E2,6.8289294E2,1.4843552E2,1.6083124E2,3.873847E2,2.955082E2,4.3832874E1,1.0460264E2,1.5859196E2,2.2392702E0,3.6936462E2,1.8020075E1,2.2061872E1,2.7344635E2,6.1781945E0,3.7654682E1,1.0836625E1,9.3766014E1,1.2609102E2,3.250095E1,1.9400148E1,3.4996448E2,1.5108068E1,2.9120073E0,1.1304906E1,1.0756968E1,2.7173572E2,1.7106144E0,4.3933725E0,1.7848219E0,1.301034E1,8.075568E1,9.1918594E1,3.4172432E1,1.3618001E1,1.888295E1,2.3977997E0,1.7002348E1,2.5650793E2,9.345654E1,9.2277E0,2.0772057E0,1.3152846E0,9.441683E0,2.64481E0,2.690909E2],"tree_param":{"num_deleted":"0","num_feature":"26","num_nodes":"47","size_leaf_vector":"1"}},{"base_weights":[-1.4993558E-2,-5.4098195E-1,2.0775732E-1,-1.055364E0,-1.6481256E-1,-1.1135213E0,2.6011664E-1,3.5151923E-1,-1.1088458E0,2.5054374E-1,-7.038944E-1,-4.294917E-1,1.9000472E-1,3.0077197E-2,5.895304E-1,-3.7068233E-1,-5.8386254E-1,-4.616733E-1,6.412493E-1,-1.1923095E0,-2.4399997E-1,-1.143769E-1,6.417519E-1,-3.6853635E-1,6.291958E-1,1.8966977E-1,-3.6940885E-1,-4.1164127E-1,1.5200356E-1,-1.1772252E-1,3.499477E-1,-3.9448756E-1,1.7416073E-1,3.1470948E-1,-1.9798194E-1,-4.753954E-1,1.9516854E-2,-2.4997002E-1,2.307543E-1,-2.871229E-1,2.0024234E-1],"categories":[],"categories_nodes":[],"categories_segments":[],"categories_sizes":[],"default_left":[0,0,0,0,0,0,1,0,0,0,0,0,0,0,0,0,0,0,0,0,0,0,0,0,0,0,0,0,0,0,0,0,0,0,0,0,0,0,0,0,0],"id":4,"left_children":[1,3,5,7,9,11,13,-1,15,17,19,-1,-1,21,23,-1,25,27,29,31,33,35,37,-1,39,-1,-1,-1,-1,-1,-1,-1,-1,-1,-1,-1,-1,-1,-1,-1,-1],"loss_changes":[1.0856108E2,5.3162514E1,4.5324097E1,1.5145538E1,3.609152E1,1.4800758E1,4.7492226E1,0E0,6.867462E0,2.571117E1,1.5447193E1,0E0,0E0,3.278538E1,1.935913E1,0E0,1.9736082E1,2.9733177E1,3.270597E1,8.095795E0,2.0776651E1,7.9337006E1,1.3963062E1,0E0,1.5995117E1,0E0,0E0,0E0,0E0,0E0,0E0,0E0,0E0,0E0,0E0,0E0,0E0,0E0,0E0,0E0,0E0],"parents":[2147483647,0,0,1,1,2,2,3,3,4,4,5,5,6,6,8,8,9,9,10,10,13,13,14,14,16,16,17,17,18,18,19,19,20,20,21,21,22,22,24,24],"right_children":[2,4,6,8,10,12,14,-1,16,18,20,-1,-1,22,24,-1,26,28,30,32,34,36,38,-1,40,-1,-1,-1,-1,-1,-1,-1,-1,-1,-1,-1,-1,-1,-1,-1,-1],"split_conditions":[1.32E2,1.1E1,2E0,1.6E1,8.03E2,2.15E2,3.78E-1,3.5151923E-1,1.08E2,4E1,2.1E1,-4.294917E-1,1.9000472E-1,5.1E1,6.4E1,-3.7068233E-1,5.8E1,1.91E2,7.7E1,2.39E2,2.8E1,9E0,5.28E-1,-3.6853635E-1,5E0,1.8966977E-1,-3.6940885E-1,-4.1164127E-1,1.5200356E-1,-1.1772252E-1,3.499477E-1,-3.9448756E-1,1.7416073E-1,3.1470948E-1,-1.9798194E-1,-4.753954E-1,1.9516854E-2,-2.4997002E-1,2.307543E-1,-2.871229E-1,2.0024234E-1],"split_indices":[3,16,16,0,2,3,22,0,12,8,16,0,0,16,5,0,18,13,10,6,11,7,25,0,7,0,0,0,0,0,0,0,0,0,0,0,0,0,0,0,0],"split_type":[0,0,0,0,0,0,0,0,0,0,0,0,0,0,0,0,0,0,0,0,0,0,0,0,0,0,0,0,0,0,0,0,0,0,0,0,0,0,0,0,0],"sum_hessian":[9.246114E2,2.7464804E2,6.499633E2,1.15248795E2,1.5939925E2,2.40023E1,6.2596106E2,2.2123606E0,1.1303643E2,9.0333534E1,6.9065704E1,2.0457329E1,3.5449715E0,3.6921707E2,2.5674396E2,8.996094E1,2.3075495E1,3.1935919E1,5.8397614E1,3.2721928E1,3.634378E1,2.9933795E2,6.987913E1,4.842172E0,2.519018E2,8.025701E0,1.5049794E1,1.6245028E1,1.5690891E1,1.9761211E1,3.8636402E1,3.0846203E1,1.8757238E0,8.475117E0,2.7868664E1,3.1706171E1,2.6763177E2,5.1165466E0,6.476258E1,5.369891E0,2.465319E2],"tree_param":{"num_deleted":"0","num_feature":"26","num_nodes":"41","size_leaf_vector":"1"}},{"base_weights":[-1.8769091E-2,-5.271938E-1,1.5682475E-1,-7.64946E-1,2.2931327E-1,-1.4111291E-1,4.0404883E-1,-1.0047641E0,-1.4561863E-1,-2.8019992E-1,7.91921E-1,-5.1473066E-2,-1.0189981E0,-4.5287475E-1,4.5852077E-1,-1.0657507E0,5.222262E-1,2.546851E-1,-4.126719E-1,-4.6311688E-1,8.660072E-2,-8.2366414E-2,9.0716684E-1,-1.6663544E-1,7.1433574E-1,-4.5690116E-1,2.6716703E-1,-1.4492975E0,6.6838455E-1,3.7622663E-1,9.7437525E-1,-3.68948E-1,-1.3172843E-1,3.5218053E-2,2.577429E-1,-3.243863E-1,1.6640809E-1,1.7555593E-1,-3.6938855E-1,6.064826E-2,3.3427423E-1,9.705097E-3,-1.751451E-1,2.846599E-1,-3.7059057E-1,3.1801906E-1,-6.336242E-1,-4.275229E-1,3.2872912E-1,-2.542817E-2,1.5233952E-1,-1.0081421E-1,3.1950933E-1],"categories":[],"categories_nodes":[],"categories_segments":[],"categories_sizes":[],"default_left":[0,0,0,0,0,0,0,0,0,0,0,1,0,1,0,0,0,0,0,0,0,0,0,0,0,0,0,0,0,0,0,0,0,0,0,0,0,0,0,0,0,0,0,0,0,0,0,0,0,0,0,0,0],"id":5,"left_children":[1,3,5,7,9,11,13,15,17,19,21,23,25,27,29,31,33,35,-1,-1,37,-1,39,41,43,-1,-1,45,47,49,51,-1,-1,-1,-1,-1,-1,-1,-1,-1,-1,-1,-1,-1,-1,-1,-1,-1,-1,-1,-1,-1,-1],"loss_changes":[7.696541E1,3.997898E1,4.7262276E1,2.4897163E1,1.5611914E1,2.2876518E1,1.6568657E1,1.1860001E1,2.4099354E1,1.3533315E1,3.4171162E0,2.3527824E1,2.7285902E1,2.4935884E1,1.3644783E1,1.1494492E1,6.26493E-1,1.5523789E1,0E0,0E0,1.6066174E1,0E0,3.2047863E0,1.923994E1,1.7123991E1,0E0,0E0,2.165454E1,1.1204711E1,1.7406357E1,5.677681E0,0E0,0E0,0E0,0E0,0E0,0E0,0E0,0E0,0E0,0E0,0E0,0E0,0E0,0E0,0E0,0E0,0E0,0E0,0E0,0E0,0E0,0E0],"parents":[2147483647,0,0,1,1,2,2,3,3,4,4,5,5,6,6,7,7,8,8,9,9,10,10,11,11,12,12,13,13,14,14,15,15,16,16,17,17,20,20,22,22,23,23,24,24,27,27,28,28,29,29,30,30],"right_children":[2,4,6,8,10,12,14,16,18,20,22,24,26,28,30,32,34,36,-1,-1,38,-1,40,42,44,-1,-1,46,48,50,52,-1,-1,-1,-1,-1,-1,-1,-1,-1,-1,-1,-1,-1,-1,-1,-1,-1,-1,-1,-1,-1,-1],"split_conditions":[8E0,4.27E2,4.3E2,5.18E-1,1.43E2,2.52E2,1.8E1,1.318E3,5.53E-1,1.22E2,7.17E-1,4.26E-1,3.03E2,4.23E-1,6.36E-1,4.51E-1,1.98E2,7.4E1,-4.126719E-1,-4.6311688E-1,6.28E2,-8.2366414E-2,4.41E-1,9.23E2,1.87E2,-4.5690116E-1,2.6716703E-1,5.44E-1,6.16E-1,3E1,6.01E-1,-3.68948E-1,-1.3172843E-1,3.5218053E-2,2.577429E-1,-3.243863E-1,1.6640809E-1,1.7555593E-1,-3.6938855E-1,6.064826E-2,3.3427423E-1,9.705097E-3,-1.751451E-1,2.846599E-1,-3.7059057E-1,3.1801906E-1,-6.336242E-1,-4.275229E-1,3.2872912E-1,-2.542817E-2,1.5233952E-1,-1.0081421E-1,3.1950933E-1],"split_indices":[16,4,19,21,13,6,15,2,21,10,23,22,13,22,24,20,12,5,0,0,19,0,20,2,6,0,0,23,24,7,25,0,0,0,0,0,0,0,0,0,0,0,0,0,0,0,0,0,0,0,0,0,0],"split_type":[0,0,0,0,0,0,0,0,0,0,0,0,0,0,0,0,0,0,0,0,0,0,0,0,0,0,0,0,0,0,0,0,0,0,0,0,0,0,0,0,0,0,0,0,0,0,0,0,0,0,0,0,0],"sum_hessian":[8.601779E2,2.2030156E2,6.3987634E2,1.6761346E2,5.26881E1,2.903706E2,3.4950574E2,1.20377945E2,4.7235523E1,2.7912094E1,2.4776005E1,2.6442874E2,2.5941877E1,2.0451984E1,3.2905374E2,1.1604526E2,4.332682E0,3.6235245E1,1.1000276E1,5.5579467E0,2.2354147E1,2.2814367E0,2.2494568E1,2.3054219E2,3.3886543E1,2.0684788E1,5.2570887E0,1.0673906E1,9.778079E0,2.8527347E2,4.3780277E1,9.120319E1,2.4842064E1,2.5804715E0,1.7522106E0,6.16731E0,3.0067936E1,1.6621775E1,5.7323723E0,5.555864E0,1.6938704E1,1.567152E2,7.3827E1,3.0706085E1,3.1804585E0,2.1049497E0,8.568956E0,1.2619802E0,8.516099E0,6.34211E1,2.2185236E2,2.6576262E0,4.112265E1],"tree_param":{"num_deleted":"0","num_feature":"26","num_nodes":"53","size_leaf_vector":"1"}},{"base_weights":[-1.872968E-2,-4.2907014E-1,1.2805521E-1,-1.0258775E0,-2.2293724E-1,-2.1662925E-1,2.3486736E-1,2.785698E-1,-3.3430925E-1,-1.1306434E-1,-3.9844927E-1,-6.161981E-1,1.5619874E-1,-2.4317015E-2,3.9765346E-1,-5.6356734E-1,1.42497E-1,-1.1032578E0,-1.6572332E-2,2.8244922E-1,-4.2956316E-1,-4.7231776E-1,5.4055013E-2,2.1965024E-1,6.3934815E-1,1.3104396E-1,-2.8504503E-1,7.710389E-2,-3.5904238E-1,-3.7466803E-1,2.9740483E-1,-2.1201582E-1,2.0921533E-1,3.2319596E-1,1.2965135E-2,-3.1810272E-1,4.6672467E-2,9.892109E-2,-2.2230574E-1,1.0176647E-1,2.783275E-1],"categories":[],"categories_nodes":[],"categories_segments":[],"categories_sizes":[],"default_left":[0,0,0,0,0,0,1,0,0,0,0,0,0,0,0,0,0,0,0,0,0,0,0,0,0,0,0,0,0,0,0,0,0,0,0,0,0,0,0,0,0],"id":6,"left_children":[1,3,5,7,9,11,13,-1,-1,15,-1,17,19,21,23,25,27,29,31,33,-1,-1,35,37,39,-1,-1,-1,-1,-1,-1,-1,-1,-1,-1,-1,-1,-1,-1,-1,-1],"loss_changes":[4.861294E1,2.5929909E1,2.1940176E1,1.0427307E1,1.9197248E1,2.1127203E1,1.9180529E1,0E0,0E0,1.6890652E1,0E0,1.994244E1,1.5206847E1,2.1493948E1,1.1869122E1,2.0931276E1,1.4718382E1,1.273774E1,1.6087149E1,1.31176195E1,0E0,0E0,1.92523E1,1.740631E1,9.887959E0,0E0,0E0,0E0,0E0,0E0,0E0,0E0,0E0,0E0,0E0,0E0,0E0,0E0,0E0,0E0,0E0],"parents":[2147483647,0,0,1,1,2,2,3,3,4,4,5,5,6,6,9,9,11,11,12,12,13,13,14,14,15,15,16,16,17,17,18,18,19,19,22,22,23,23,24,24],"right_children":[2,4,6,8,10,12,14,-1,-1,16,-1,18,20,22,24,26,28,30,32,34,-1,-1,36,38,40,-1,-1,-1,-1,-1,-1,-1,-1,-1,-1,-1,-1,-1,-1,-1,-1],"split_conditions":[1.3E2,8E0,8E0,1.6E1,1.25E2,4.95E-1,3.35E-1,2.785698E-1,-3.3430925E-1,7.7E1,-3.9844927E-1,1.29E2,5.55E-1,1.06E2,3.9E1,2.7E1,5.96E-1,1.75E2,5.67E-1,9.08E2,-4.2956316E-1,-4.7231776E-1,1.8E1,8.37E-1,7.88E-1,1.3104396E-1,-2.8504503E-1,7.710389E-2,-3.5904238E-1,-3.7466803E-1,2.9740483E-1,-2.1201582E-1,2.0921533E-1,3.2319596E-1,1.2965135E-2,-3.1810272E-1,4.6672467E-2,9.892109E-2,-2.2230574E-1,1.0176647E-1,2.783275E-1],"split_indices":[3,16,16,0,3,21,22,0,0,10,0,13,21,5,15,0,25,5,24,2,0,0,15,23,23,0,0,0,0,0,0,0,0,0,0,0,0,0,0,0,0],"split_type":[0,0,0,0,0,0,0,0,0,0,0,0,0,0,0,0,0,0,0,0,0,0,0,0,0,0,0,0,0,0,0,0,0,0,0,0,0,0,0,0,0],"sum_hessian":[8.0518567E2,2.1163426E2,5.9355145E2,5.3310368E1,1.583239E2,1.4017532E2,4.533761E2,1.8978509E0,5.1412518E1,1.450104E2,1.3313485E1,6.73461E1,7.282923E1,1.7522978E2,2.7814633E2,5.2050568E1,9.295984E1,3.669767E1,3.0648426E1,6.822736E1,4.6018643E0,7.514576E0,1.677152E2,1.6127751E2,1.1686881E2,1.4471633E1,3.7578934E1,8.6381935E1,6.5779033E0,3.4689507E1,2.0081632E0,1.5589223E1,1.5059203E1,1.4973452E1,5.3253914E1,1.3214391E1,1.5450081E2,1.4528548E2,1.5992041E1,5.8337532E1,5.8531277E1],"tree_param":{"num_deleted":"0","num_feature":"26","num_nodes":"41","size_leaf_vector":"1"}},{"base_weights":[-2.0408658E-2,-1.4520523E-1,3.4873122E-1,-2.3995037E-1,3.8398695E-1,-1.2582861E-1,4.9806824E-1,-1.6213854E-1,-1.165423E0,4.9212888E-1,-1.2791597E0,1.5029095E-1,-1.3501494E0,8.8837254E-1,2.9511002E-1,-1.0382029E0,-8.9835644E-2,-6.299718E-1,-1.6614342E0,-3.2912874E-1,6.056474E-1,-5.697752E-1,1.8558857E-1,-1.6329423E-1,8.906461E-1,-6.7892027E-1,6.9791414E-2,-9.6590385E-2,9.621073E-1,-6.511733E-1,4.7436124E-1,-3.7253943E-1,3.4316513E-1,-1.3899517E-1,1.4624185E-2,-4.71106E-1,1.4163184E-1,-5.5945396E-1,3.349065E-2,-3.5828045E-1,2.000191E-1,1.4923322E-1,-2.0178737E-1,3.100808E-1,6.0941294E-2,-3.443215E-1,2.4590191E-1,3.093278E-1,2.3281697E-2,1.7174995E-1,-4.9637428E-1,-3.7965438E-1,1.7136522E-1],"categories":[],"categories_nodes":[],"categories_segments":[],"categories_sizes":[],"default_left":[0,0,0,0,0,0,0,0,0,0,0,0,0,0,0,0,0,0,0,0,0,0,0,0,0,0,0,0,0,0,0,0,0,0,0,0,0,0,0,0,0,0,0,0,0,0,0,0,0,0,0,0,0],"id":7,"left_children":[1,3,5,7,9,11,13,15,17,19,21,23,25,27,29,31,33,35,37,-1,39,-1,-1,41,43,-1,45,-1,47,49,51,-1,-1,-1,-1,-1,-1,-1,-1,-1,-1,-1,-1,-1,-1,-1,-1,-1,-1,-1,-1,-1,-1],"loss_changes":[3.5025215E1,2.8575367E1,1.3677561E1,3.4553047E1,1.6213955E1,1.6018223E1,1.1329411E1,2.8169123E1,8.847958E0,1.5472496E1,7.727395E0,9.216869E0,1.1447819E1,4.7329597E0,1.6892372E1,1.649088E1,2.141243E1,2.0977724E1,6.9631157E0,0E0,9.289848E0,0E0,0E0,9.856034E0,9.4788456E-1,0E0,4.938196E0,0E0,2.7858238E0,2.0582554E1,1.4671984E1,0E0,0E0,0E0,0E0,0E0,0E0,0E0,0E0,0E0,0E0,0E0,0E0,0E0,0E0,0E0,0E0,0E0,0E0,0E0,0E0,0E0,0E0],"parents":[2147483647,0,0,1,1,2,2,3,3,4,4,5,5,6,6,7,7,8,8,9,9,10,10,11,11,12,12,13,13,14,14,15,15,16,16,17,17,18,18,20,20,23,23,24,24,26,26,28,28,29,29,30,30],"right_children":[2,4,6,8,10,12,14,16,18,20,22,24,26,28,30,32,34,36,38,-1,40,-1,-1,42,44,-1,46,-1,48,50,52,-1,-1,-1,-1,-1,-1,-1,-1,-1,-1,-1,-1,-1,-1,-1,-1,-1,-1,-1,-1,-1,-1],"split_conditions":[5.36E2,4.6E1,1.3E2,1.44E2,3.41E2,1.17E2,2.91E2,4.1E1,6.75E-1,1.12E2,5.4E1,2.18E2,1.222E3,8.1E1,2.09E2,9.11E-1,8E0,6.53E-1,1E2,-3.2912874E-1,2.9E1,-5.697752E-1,1.8558857E-1,1.109E3,4.42E2,-6.7892027E-1,4.39E-1,-9.6590385E-2,6.3E1,7.13E-1,3.03E2,-3.7253943E-1,3.4316513E-1,-1.3899517E-1,1.4624185E-2,-4.71106E-1,1.4163184E-1,-5.5945396E-1,3.349065E-2,-3.5828045E-1,2.000191E-1,1.4923322E-1,-2.0178737E-1,3.100808E-1,6.0941294E-2,-3.443215E-1,2.4590191E-1,3.093278E-1,2.3281697E-2,1.7174995E-1,-4.9637428E-1,-3.7965438E-1,1.7136522E-1],"split_indices":[19,16,5,5,4,5,6,9,23,3,7,13,2,9,3,23,16,23,17,0,0,0,0,2,4,0,20,0,15,23,6,0,0,0,0,0,0,0,0,0,0,0,0,0,0,0,0,0,0,0,0,0,0],"split_type":[0,0,0,0,0,0,0,0,0,0,0,0,0,0,0,0,0,0,0,0,0,0,0,0,0,0,0,0,0,0,0,0,0,0,0,0,0,0,0,0,0,0,0,0,0,0,0,0,0,0,0,0,0],"sum_hessian":[7.582047E2,5.670923E2,1.9111247E2,4.8144263E2,8.564962E1,4.5782692E1,1.4532977E2,4.451874E2,3.6255245E1,8.108159E1,4.568029E0,3.807331E1,7.7093816E0,4.856275E1,9.676703E1,3.2922306E1,4.1226508E2,1.8526115E1,1.772913E1,4.827906E0,7.6253685E1,3.442456E0,1.1255729E0,2.7292658E1,1.0780654E1,4.3310547E0,3.378327E0,2.5952768E0,4.5967472E1,1.499171E1,8.177532E1,3.0506838E1,2.4154663E0,1.1093948E2,3.013256E2,9.76712E0,8.758995E0,1.5858079E1,1.8710515E0,1.8939387E0,7.435975E1,1.189064E1,1.5402019E1,8.508121E0,2.2725327E0,1.0854307E0,2.2928963E0,4.2487957E1,3.4795146E0,6.9479756E0,8.043734E0,3.6759763E0,7.809934E1],"tree_param":{"num_deleted":"0","num_feature":"26","num_nodes":"53","size_leaf_vector":"1"}},{"base_weights":[-1.8159157E-2,-6.60743E-1,3.6320604E-2,-3.5450608E-1,4.3738328E-2,-2.0293897E-1,1.6783546E-1,7.291752E-1,-2.4455278E-1,-3.5573244E-1,2.4330978E-1,-7.9193884E-1,2.1120533E-1,-9.3323195E-1,5.441072E-1,1.06534086E-1,-6.5121865E-1,-9.76486E-1,4.257981E-1,-1.0903143E0,2.0662247E-1,-8.150468E-1,2.4484362E-1,-3.755671E-1,2.3818466E-1,-3.7612325E-1,3.1010723E-1,-3.7109378E-1,9.5082365E-2,2.1921782E-1,-2.4415065E-1,1.9971223E-1,-4.4018686E-1,2.2501267E-1,-3.948109E-2,2.2230922E-1,-3.9727512E-1,-3.435122E-1,1.2646678E-1,-1.0568043E-1,8.895035E-2],"categories":[],"categories_nodes":[],"categories_segments":[],"categories_sizes":[],"default_left":[0,0,0,0,0,0,0,0,0,0,0,0,0,0,0,0,0,0,0,0,0,0,0,0,0,0,0,0,0,0,0,0,0,0,0,0,0,0,0,0,0],"id":8,"left_children":[1,3,5,-1,7,9,11,-1,13,15,17,19,21,23,25,27,29,31,33,35,-1,37,39,-1,-1,-1,-1,-1,-1,-1,-1,-1,-1,-1,-1,-1,-1,-1,-1,-1,-1],"loss_changes":[2.5271254E1,2.0756605E1,2.0983356E1,0E0,1.7761332E1,1.6219131E1,1.807312E1,0E0,1.3091143E1,2.4200129E1,1.3981547E1,9.060466E0,1.4434765E1,8.003753E0,1.1358212E1,2.0108908E1,2.4845634E1,7.613759E0,9.80562E0,7.853586E0,0E0,5.9175014E0,1.2443838E1,0E0,0E0,0E0,0E0,0E0,0E0,0E0,0E0,0E0,0E0,0E0,0E0,0E0,0E0,0E0,0E0,0E0,0E0],"parents":[2147483647,0,0,1,1,2,2,4,4,5,5,6,6,8,8,9,9,10,10,11,11,12,12,13,13,14,14,15,15,16,16,17,17,18,18,19,19,21,21,22,22],"right_children":[2,4,6,-1,8,10,12,-1,14,16,18,20,22,24,26,28,30,32,34,36,-1,38,40,-1,-1,-1,-1,-1,-1,-1,-1,-1,-1,-1,-1,-1,-1,-1,-1,-1,-1],"split_conditions":[4.03E-1,1.087E3,5.1E1,-3.5450608E-1,1.089E3,4.9E1,6.3E1,7.291752E-1,1.56E2,8.6E1,5.48E-1,1.82E2,2E0,2.34E2,2.16E2,6.98E-1,5E0,8E0,6.02E-1,1E0,2.0662247E-1,1.55E2,1.1E1,-3.755671E-1,2.3818466E-1,-3.7612325E-1,3.1010723E-1,-3.7109378E-1,9.5082365E-2,2.1921782E-1,-2.4415065E-1,1.9971223E-1,-4.4018686E-1,2.2501267E-1,-3.948109E-2,2.2230922E-1,-3.9727512E-1,-3.435122E-1,1.2646678E-1,-1.0568043E-1,8.895035E-2],"split_indices":[20,2,14,0,2,16,10,0,10,5,25,14,16,12,8,23,1,1,25,7,0,5,7,0,0,0,0,0,0,0,0,0,0,0,0,0,0,0,0,0,0],"split_type":[0,0,0,0,0,0,0,0,0,0,0,0,0,0,0,0,0,0,0,0,0,0,0,0,0,0,0,0,0,0,0,0,0,0,0,0,0,0,0,0,0],"sum_hessian":[7.201891E2,5.541742E1,6.6477167E2,3.1469349E1,2.3948072E1,2.3560396E2,4.2916772E2,1.7799925E0,2.216808E1,1.7566122E2,5.994274E1,1.7808392E1,4.1135934E2,1.1736306E1,1.0431773E1,6.874857E1,1.0691265E2,7.234519E0,5.270822E1,1.504107E1,2.767322E0,1.2318269E1,3.9904105E2,1.0140589E1,1.5957175E0,1.898661E0,8.533112E0,8.648201E0,6.0100372E1,1.0888325E1,9.602432E1,1.5826668E0,5.6518526E0,3.3105145E1,1.9603077E1,1.458181E0,1.3582889E1,9.781948E0,2.5363202E0,3.1309845E1,3.6773123E2],"tree_param":{"num_deleted":"0","num_feature":"26","num_nodes":"41","size_leaf_vector":"1"}},{"base_weights":[-1.791294E-2,-2.9172105E-1,7.795534E-2,-7.8252137E-1,-8.498253E-2,1.2051146E-2,4.5974603E-1,-9.109079E-1,2.791021E-1,-1.030879E0,4.8963696E-2,3.645509E-1,-1.043426E-1,-1.0185057E0,5.734577E-1,2.5155523E-1,-9.945258E-1,4.9880654E-1,-2.4981166E-1,-3.6749223E-1,6.73648E-2,4.1242748E-1,-4.4306898E-1,-1.4379372E-1,7.321117E-1,-6.1727583E-1,5.987408E-3,-4.77184E-1,1.919071E-1,6.469637E-1,-5.7713306E-1,3.3116832E-2,-3.3272797E-1,-7.308783E-2,1.8350922E-1,-2.9859236E-1,-4.6296E-3,-4.3102905E-1,3.442384E-2,4.5846295E-1,1.0682798E-1,-4.084521E-1,-4.8776655E-3,-7.8065336E-2,1.0096565E-1,2.1418911E-1,2.171885E-3,-4.030297E-1,2.1726567E-1],"categories":[],"categories_nodes":[],"categories_segments":[],"categories_sizes":[],"default_left":[0,0,0,0,0,0,0,0,0,0,0,0,0,0,0,0,0,0,0,0,0,0,0,0,0,0,0,0,0,1,0,0,0,0,0,0,0,0,0,0,0,0,0,0,0,0,0,0,0],"id":9,"left_children":[1,3,5,7,9,11,13,15,17,19,21,23,25,27,29,-1,31,-1,-1,-1,-1,33,35,37,39,41,43,-1,-1,45,47,-1,-1,-1,-1,-1,-1,-1,-1,-1,-1,-1,-1,-1,-1,-1,-1,-1,-1],"loss_changes":[1.8096884E1,1.8073132E1,1.2846466E1,7.4594307E0,1.6129837E1,1.79518E1,1.3218665E1,7.766983E0,1.1335274E1,4.1220474E0,2.0234217E1,2.0397606E1,1.8623062E1,6.45246E0,6.3304157E0,0E0,5.9062195E0,0E0,0E0,0E0,0E0,8.647132E0,1.1348075E1,1.5678916E1,1.837276E1,2.6033323E1,2.4001915E1,0E0,0E0,2.8526878E0,5.7177997E0,0E0,0E0,0E0,0E0,0E0,0E0,0E0,0E0,0E0,0E0,0E0,0E0,0E0,0E0,0E0,0E0,0E0,0E0],"parents":[2147483647,0,0,1,1,2,2,3,3,4,4,5,5,6,6,7,7,8,8,9,9,10,10,11,11,12,12,13,13,14,14,16,16,21,21,22,22,23,23,24,24,25,25,26,26,29,29,30,30],"right_children":[2,4,6,8,10,12,14,16,18,20,22,24,26,28,30,-1,32,-1,-1,-1,-1,34,36,38,40,42,44,-1,-1,46,48,-1,-1,-1,-1,-1,-1,-1,-1,-1,-1,-1,-1,-1,-1,-1,-1,-1,-1],"split_conditions":[1.32E2,1.1E1,2.03E2,1.087E3,2.3E1,9.23E2,3.9E1,1.6E1,4.7E1,8.36E-1,8.03E2,8.62E2,3E1,4E1,1.23E2,2.5155523E-1,2E1,4.9880654E-1,-2.4981166E-1,-3.6749223E-1,6.73648E-2,5.46E-1,2.1E1,5.31E-1,1.38E2,1.058E3,1.23E2,-4.77184E-1,1.919071E-1,4.31E-1,1.235E3,3.3116832E-2,-3.3272797E-1,-7.308783E-2,1.8350922E-1,-2.9859236E-1,-4.6296E-3,-4.3102905E-1,3.442384E-2,4.5846295E-1,1.0682798E-1,-4.084521E-1,-4.8776655E-3,-7.8065336E-2,1.0096565E-1,2.1418911E-1,2.171885E-3,-4.030297E-1,2.1726567E-1],"split_indices":[3,16,12,2,14,2,14,0,14,23,2,2,7,0,11,0,14,0,0,0,0,24,16,25,3,2,5,0,0,22,2,0,0,0,0,0,0,0,0,0,0,0,0,0,0,0,0,0,0],"split_type":[0,0,0,0,0,0,0,0,0,0,0,0,0,0,0,0,0,0,0,0,0,0,0,0,0,0,0,0,0,0,0,0,0,0,0,0,0,0,0,0,0,0,0,0,0,0,0,0,0],"sum_hessian":[6.8755145E2,1.7777312E2,5.0977835E2,5.186345E1,1.2590966E2,4.356147E2,7.416366E1,4.639471E1,5.468739E0,1.4787515E1,1.1112215E2,1.0760369E2,3.28011E2,4.729053E0,6.943461E1,1.7045585E0,4.469015E1,2.2158046E0,3.2529347E0,1.2828438E1,1.9590776E0,6.400416E1,4.711799E1,4.5409775E1,6.2193916E1,5.725111E1,2.707599E2,3.5462794E0,1.1827736E0,6.5676544E1,3.7580647E0,4.2019534E0,4.0488197E1,1.4859576E1,4.914458E1,1.9983883E1,2.7134104E1,6.807572E0,3.8602203E1,1.896899E1,4.3224926E1,2.5012781E1,3.2238327E1,1.5009807E2,1.2066181E2,5.9345127E1,6.331414E0,2.344924E0,1.4131409E0],"tree_param":{"num_deleted":"0","num_feature":"26","num_nodes":"49","size_leaf_vector":"1"}},{"base_weights":[-1.7513767E-2,-2.664011E-1,6.602817E-2,-3.290987E-1,-1.2718308E-1,-3.4512365E-1,9.47113E-2,2.9209107E-1,-3.728422E-1,-9.403295E-1,1.14579804E-1,-4.7672078E-1,5.784707E-1,-6.0939574E-1,3.5790518E-1,-3.789251E-1,1.943341E-1,9.38502E-1,8.042441E-2,4.1246317E-2,-3.499692E-1,-2.500145E-1,2.0103045E-1,4.966169E-2,-3.06324E-1,2.496663E-1,-1.1194231E-1,-2.8623667E-1,3.3203074E-1,-1.4521556E-1,4.0410664E-2],"categories":[],"categories_nodes":[],"categories_segments":[],"categories_sizes":[],"default_left":[0,0,0,0,0,0,0,0,0,0,0,0,0,0,0,0,0,0,0,0,0,0,0,0,0,0,0,0,0,0,0],"id":10,"left_children":[1,3,5,-1,7,-1,9,11,13,15,17,19,21,23,25,-1,-1,27,29,-1,-1,-1,-1,-1,-1,-1,-1,-1,-1,-1,-1],"loss_changes":[1.3600603E1,1.886705E1,1.7202045E1,0E0,1.4724853E1,0E0,9.969217E0,1.1942078E1,1.5761281E1,5.5032396E0,1.3190187E1,6.4859114E0,5.6113777E0,2.1958023E1,8.153692E0,0E0,0E0,7.0017242E0,1.3966626E1,0E0,0E0,0E0,0E0,0E0,0E0,0E0,0E0,0E0,0E0,0E0,0E0],"parents":[2147483647,0,0,1,1,2,2,4,4,6,6,7,7,8,8,9,9,10,10,11,11,12,12,13,13,14,14,17,17,18,18],"right_children":[2,4,6,-1,8,-1,10,12,14,16,18,20,22,24,26,-1,-1,28,30,-1,-1,-1,-1,-1,-1,-1,-1,-1,-1,-1,-1],"split_conditions":[1.01E2,4.11E-1,1.99E2,-3.290987E-1,5.7E1,-3.4512365E-1,4.5E-1,4.7E1,5.1E1,2.48E2,4.99E-1,3.9E1,1.1E1,9.6E1,1.049E3,-3.789251E-1,1.943341E-1,6.15E-1,5.3E-1,4.1246317E-2,-3.499692E-1,-2.500145E-1,2.0103045E-1,4.966169E-2,-3.06324E-1,2.496663E-1,-1.1194231E-1,-2.8623667E-1,3.3203074E-1,-1.4521556E-1,4.0410664E-2],"split_indices":[12,20,4,0,18,0,25,18,15,12,24,18,11,13,2,0,0,23,24,0,0,0,0,0,0,0,0,0,0,0,0],"split_type":[0,0,0,0,0,0,0,0,0,0,0,0,0,0,0,0,0,0,0,0,0,0,0,0,0,0,0,0,0,0,0],"sum_hessian":[6.5226404E2,1.633687E2,4.8889532E2,2.2464231E1,1.4090446E2,1.036148E1,4.7853384E2,5.198723E1,8.8917244E1,8.140309E0,4.7039352E2,1.3928983E1,3.8058247E1,6.729797E1,2.1619267E1,6.935466E0,1.2048438E0,1.7669882E1,4.5272363E2,7.791999E0,6.1369834E0,1.8261282E0,3.6232117E1,2.3555721E1,4.3742256E1,1.3028043E1,8.591224E0,1.0613878E0,1.6608494E1,3.9018845E1,4.137048E2],"tree_param":{"num_deleted":"0","num_feature":"26","num_nodes":"31","size_leaf_vector":"1"}},{"base_weights":[-1.7782953E-2,-1.06588095E-1,2.1614224E-1,-2.744384E-1,9.5112346E-2,-9.6551913E-1,2.8981048E-1,-6.228922E-1,-3.405783E-2,-2.2718389E-2,9.105587E-1,-3.7141854E-1,1.9103988E-1,1.0405826E-1,6.233293E-1,9.8492235E-1,-7.089182E-1,4.862879E-1,-1.5144955E-1,1.7721894E-1,-4.9351615E-1,1.0573918E0,6.689415E-2,7.77344E-1,-1.2600093E-1,1.1870097E0,3.072086E-1,5.1748563E-2,4.5311823E-1,-6.754432E-2,-3.1731388E-1,2.7628145E-1,-2.7167013E-1,-3.303928E-1,-4.149739E-3,-4.7032434E-2,1.6216294E-1,9.549769E-4,-3.0752516E-1,-1.3455394E-2,3.6865497E-1,2.2952668E-1,-2.0049535E-1,2.6595628E-1,-2.1772756E-1,-3.9491367E-1,2.204422E-2,3.941873E-1,4.747982E-3,-2.65676E-1,1.5245773E-1],"categories":[],"categories_nodes":[],"categories_segments":[],"categories_sizes":[],"default_left":[1,0,0,0,0,0,0,0,0,0,0,0,0,0,0,0,0,0,0,0,0,0,0,0,0,0,0,0,0,0,0,0,0,0,0,0,0,0,0,0,0,0,0,0,0,0,0,0,0,0,0],"id":11,"left_children":[1,3,5,7,9,11,13,15,17,19,21,-1,-1,23,25,27,29,31,33,35,37,39,41,43,45,47,49,-1,-1,-1,-1,-1,-1,-1,-1,-1,-1,-1,-1,-1,-1,-1,-1,-1,-1,-1,-1,-1,-1,-1,-1],"loss_changes":[1.3104428E1,1.5501501E1,1.539236E1,2.0897638E1,2.004075E1,5.338296E0,1.0106825E1,1.4791733E1,9.165918E0,1.7315897E1,3.1910496E0,0E0,0E0,1.6618305E1,1.0065239E1,2.1273828E0,1.618018E1,1.7553356E1,1.5959846E1,1.576358E1,1.4478003E1,4.280857E0,3.062956E0,5.1237373E0,1.9177248E1,3.0541763E0,9.763695E0,0E0,0E0,0E0,0E0,0E0,0E0,0E0,0E0,0E0,0E0,0E0,0E0,0E0,0E0,0E0,0E0,0E0,0E0,0E0,0E0,0E0,0E0,0E0,0E0],"parents":[2147483647,0,0,1,1,2,2,3,3,4,4,5,5,6,6,7,7,8,8,9,9,10,10,13,13,14,14,15,15,16,16,17,17,18,18,19,19,20,20,21,21,22,22,23,23,24,24,25,25,26,26],"right_children":[2,4,6,8,10,12,14,16,18,20,22,-1,-1,24,26,28,30,32,34,36,38,40,42,44,46,48,50,-1,-1,-1,-1,-1,-1,-1,-1,-1,-1,-1,-1,-1,-1,-1,-1,-1,-1,-1,-1,-1,-1,-1,-1],"split_conditions":[3.95E-1,3.5E1,3E1,1.12E2,4.6E1,3.9E1,2.1E1,5.61E2,1.21E2,8E1,3.66E-1,-3.7141854E-1,1.9103988E-1,2.4E1,1.63E2,3.5E1,7.7E1,2.92E2,1.8E1,3.5E1,5.02E-1,3.3E1,7.3E1,4.53E-1,1.59E2,8.4E1,3.05E2,5.1748563E-2,4.5311823E-1,-6.754432E-2,-3.1731388E-1,2.7628145E-1,-2.7167013E-1,-3.303928E-1,-4.149739E-3,-4.7032434E-2,1.6216294E-1,9.549769E-4,-3.0752516E-1,-1.3455394E-2,3.6865497E-1,2.2952668E-1,-2.0049535E-1,2.6595628E-1,-2.1772756E-1,-3.9491367E-1,2.204422E-2,3.941873E-1,4.747982E-3,-2.65676E-1,1.5245773E-1],"split_indices":[22,15,14,5,16,0,16,2,5,18,22,0,0,1,6,0,5,4,15,0,25,1,18,22,6,18,4,0,0,0,0,0,0,0,0,0,0,0,0,0,0,0,0,0,0,0,0,0,0,0,0],"split_type":[0,0,0,0,0,0,0,0,0,0,0,0,0,0,0,0,0,0,0,0,0,0,0,0,0,0,0,0,0,0,0,0,0,0,0,0,0,0,0,0,0,0,0,0,0,0,0,0,0,0,0],"sum_hessian":[6.287074E2,4.5610165E2,1.7260576E2,2.48743E2,2.0735866E2,9.418814E0,1.6318695E2,1.0089506E2,1.4784795E2,1.8202803E2,2.5330627E1,8.243915E0,1.1748986E0,1.0565483E2,5.753212E1,4.593527E0,9.630153E1,2.6636711E1,1.21211235E2,1.2820555E2,5.382247E1,2.1359795E1,3.9708328E0,2.630178E1,7.935305E1,1.9681953E1,3.7850166E1,2.3258374E0,2.2676895E0,4.103391E1,5.526762E1,2.0555845E1,6.0808673E0,1.4452763E1,1.0675847E2,6.709527E1,6.111029E1,2.8337645E1,2.5484825E1,2.9747303E0,1.8385065E1,2.0158458E0,1.954987E0,2.490316E1,1.3986202E0,1.0585659E1,6.8767395E1,1.7647217E1,2.034737E0,4.9668336E0,3.288333E1],"tree_param":{"num_deleted":"0","num_feature":"26","num_nodes":"51","size_leaf_vector":"1"}},{"base_weights":[-1.3005313E-2,-6.599129E-2,3.085635E-1,1.355011E-3,-5.5685043E-1,-4.494239E-2,5.549234E-1,-2.2110343E-1,1.8110992E-1,1.1207026E-1,-9.87474E-1,-2.7397275E-1,6.649104E-1,2.2933105E-1,8.8122225E-1,4.1522342E-1,-3.554785E-1,-3.7835103E-1,2.1940543E-1,4.668869E-1,-3.4784278E-1,-1.4604572E0,1.268745E-1,5.8361128E-2,-1.3287799E0,9.417165E-1,-1.4239538E-1,-1.0404763E0,5.6768215E-1,9.802814E-1,-9.299995E-2,-1.4041692E-1,1.8821728E-1,-3.1779876E-1,-5.6751795E-2,-4.557983E-2,1.1498063E-1,-8.568556E-2,2.5813514E-1,-1.6248271E-1,-4.9581787E-1,-3.5446572E-1,1.5595329E-1,1.2582506E-1,-2.7831408E-1,-6.5623045E-1,1.0373979E-1,8.2701884E-2,3.2167426E-1,2.1001776E-1,-5.10245E-1,2.2271694E-1,-2.603754E-2,-4.2380296E-2,3.1878424E-1,5.82028E-2,-1.048863E-1],"categories":[],"categories_nodes":[],"categories_segments":[],"categories_sizes":[],"default_left":[0,0,0,0,0,0,0,0,0,0,0,0,0,0,0,0,0,0,0,0,0,0,0,1,1,0,0,0,0,0,0,0,0,0,0,0,0,0,0,0,0,0,0,0,0,0,0,0,0,0,0,0,0,0,0,0,0],"id":12,"left_children":[1,3,5,7,9,11,13,15,17,19,21,23,25,27,29,31,33,-1,35,37,-1,39,41,43,45,47,-1,49,51,53,55,-1,-1,-1,-1,-1,-1,-1,-1,-1,-1,-1,-1,-1,-1,-1,-1,-1,-1,-1,-1,-1,-1,-1,-1,-1,-1],"loss_changes":[1.0313799E1,1.7173666E1,7.4831095E0,1.8346874E1,1.8165033E1,6.050547E0,5.167509E0,1.7680813E1,1.4292422E1,1.2021203E1,2.0336353E1,9.892486E0,3.3165197E0,1.2040661E1,2.4933662E0,7.0800467E0,1.9679964E1,0E0,1.515146E1,6.348587E0,0E0,3.8607292E0,6.9448724E0,8.310273E0,1.0462263E1,3.6986542E-1,0E0,8.040896E0,2.5445104E0,2.2444878E0,3.0431023E-1,0E0,0E0,0E0,0E0,0E0,0E0,0E0,0E0,0E0,0E0,0E0,0E0,0E0,0E0,0E0,0E0,0E0,0E0,0E0,0E0,0E0,0E0,0E0,0E0,0E0,0E0],"parents":[2147483647,0,0,1,1,2,2,3,3,4,4,5,5,6,6,7,7,8,8,9,9,10,10,11,11,12,12,13,13,14,14,15,15,16,16,18,18,19,19,21,21,22,22,23,23,24,24,25,25,27,27,28,28,29,29,30,30],"right_children":[2,4,6,8,10,12,14,16,18,20,22,24,26,28,30,32,34,-1,36,38,-1,40,42,44,46,48,-1,50,52,54,56,-1,-1,-1,-1,-1,-1,-1,-1,-1,-1,-1,-1,-1,-1,-1,-1,-1,-1,-1,-1,-1,-1,-1,-1,-1,-1],"split_conditions":[4.9E1,5.26E-1,5.9E1,1.18E2,1.23E2,3.7E1,5.9E-1,2.8E1,1.5E1,1.25E2,8.5E1,2.5E1,3.7E1,2.7E1,3.1E1,4.39E-1,2.73E2,-3.7835103E-1,4.44E-1,4.7E1,-3.4784278E-1,5.98E-1,6.19E-1,2.75E-1,3.94E-1,5.56E-1,-1.4239538E-1,5.68E-1,1.83E2,5.13E-1,4.4E1,-1.4041692E-1,1.8821728E-1,-3.1779876E-1,-5.6751795E-2,-4.557983E-2,1.1498063E-1,-8.568556E-2,2.5813514E-1,-1.6248271E-1,-4.9581787E-1,-3.5446572E-1,1.5595329E-1,1.2582506E-1,-2.7831408E-1,-6.5623045E-1,1.0373979E-1,8.2701884E-2,3.2167426E-1,2.1001776E-1,-5.10245E-1,2.2271694E-1,-2.603754E-2,-4.2380296E-2,3.1878424E-1,5.82028E-2,-1.048863E-1],"split_indices":[16,20,17,12,5,15,25,0,15,12,14,15,0,15,15,20,4,0,20,17,0,23,23,22,22,25,0,23,5,23,15,0,0,0,0,0,0,0,0,0,0,0,0,0,0,0,0,0,0,0,0,0,0,0,0,0,0],"split_type":[0,0,0,0,0,0,0,0,0,0,0,0,0,0,0,0,0,0,0,0,0,0,0,0,0,0,0,0,0,0,0,0,0,0,0,0,0,0,0,0,0,0,0,0,0,0,0,0,0,0,0,0,0,0,0,0,0],"sum_hessian":[6.031232E2,5.184854E2,8.463781E1,4.5680817E2,6.1677242E1,3.5095818E1,4.9541992E1,2.040513E2,2.5275685E2,2.4444881E1,3.723236E1,2.6998827E1,8.096991E0,2.5650177E1,2.3891813E1,3.521278E1,1.6883853E2,5.711684E0,2.4704517E2,1.9606606E1,4.8382754E0,2.592005E1,1.1312311E1,2.1248743E1,5.7500854E0,6.6542497E0,1.4427408E0,4.960108E0,2.069007E1,2.1681059E1,2.2107546E0,6.586458E0,2.8626324E1,3.124244E1,1.3759608E2,7.566042E1,1.7138475E2,6.827155E0,1.277945E1,5.145722E0,2.0774328E1,2.149301E0,9.16301E0,1.5974329E1,5.274413E0,3.5986087E0,2.1514764E0,1.6003395E0,5.0539103E0,1.3476918E0,3.612416E0,1.6224667E1,4.4654026E0,1.4338002E0,2.024726E1,1.1587615E0,1.051993E0],"tree_param":{"num_deleted":"0","num_feature":"26","num_nodes":"57","size_leaf_vector":"1"}},{"base_weights":[-1.4029483E-2,-8.296122E-1,5.8237677E-3,-3.1648177E-1,2.6181144E-1,-3.340315E-2,4.3226877E-1,1.5446854E-1,-2.9860504E-2,-5.313591E-2,8.0446076E-1,-2.9863578E-1,5.241726E-1,-1.904224E-2,-6.498007E-1,-3.235197E-1,3.2592082E-1,1.8954088E-1,9.443189E-1,-1.4991982E-2,1.9030929E-1,-1.5534298E-2,-6.164302E-1,1.5659228E-1,-2.9269016E-1,1.5113322E-1,-3.41603E-1,3.294801E-1,-1.0388338E-1],"categories":[],"categories_nodes":[],"categories_segments":[],"categories_sizes":[],"default_left":[0,0,0,0,0,0,0,0,0,0,0,0,0,0,0,0,0,0,0,0,0,0,0,0,0,0,0,0,0],"id":13,"left_children":[1,3,5,-1,7,9,11,-1,-1,13,15,-1,17,19,21,23,-1,25,27,-1,-1,-1,-1,-1,-1,-1,-1,-1,-1],"loss_changes":[9.295622E0,3.6312513E0,9.401384E0,0E0,3.380142E-1,8.554225E0,6.7335815E0,0E0,0E0,1.0238186E1,4.1382985E0,0E0,6.166484E0,9.686122E0,2.2752432E1,2.246943E0,0E0,1.158167E1,4.3060684E0,0E0,0E0,0E0,0E0,0E0,0E0,0E0,0E0,0E0,0E0],"parents":[2147483647,0,0,1,1,2,2,4,4,5,5,6,6,9,9,10,10,12,12,13,13,14,14,15,15,17,17,18,18],"right_children":[2,4,6,-1,8,10,12,-1,-1,14,16,-1,18,20,22,24,-1,26,28,-1,-1,-1,-1,-1,-1,-1,-1,-1,-1],"split_conditions":[2E0,1.55E2,1.63E2,-3.1648177E-1,3.3E1,1.05E2,1.3E1,1.5446854E-1,-2.9860504E-2,1.97E2,1.64E2,-2.9863578E-1,1.39E2,1.86E2,3.9E1,1.08E2,3.2592082E-1,9E1,6.5E1,-1.4991982E-2,1.9030929E-1,-1.5534298E-2,-6.164302E-1,1.5659228E-1,-2.9269016E-1,1.5113322E-1,-3.41603E-1,3.294801E-1,-1.0388338E-1],"split_indices":[16,5,14,0,0,17,11,0,0,10,13,0,9,10,15,14,0,17,15,0,0,0,0,0,0,0,0,0,0],"split_type":[0,0,0,0,0,0,0,0,0,0,0,0,0,0,0,0,0,0,0,0,0,0,0,0,0,0,0,0,0],"sum_hessian":[5.7279004E2,1.2642483E1,5.601475E2,1.0506765E1,2.1357176E0,5.138063E2,4.634125E1,1.0061117E0,1.1296058E0,5.0289896E2,1.0907325E1,2.2080383E0,4.4133213E1,4.7669247E2,2.6206486E1,2.151646E0,8.755679E0,2.537447E1,1.8758743E1,4.5602844E2,2.0664011E1,1.9109459E1,7.0970263E0,1.0238049E0,1.1278409E0,2.102175E1,4.352722E0,1.6892729E1,1.8660145E0],"tree_param":{"num_deleted":"0","num_feature":"26","num_nodes":"29","size_leaf_vector":"1"}},{"base_weights":[-9.577242E-3,-3.4252193E-2,5.6921965E-1,-2.1004042E-2,-5.4537106E-1,7.8711915E-1,-3.8881782E-1,-3.2193577E-1,2.173697E-2,9.443771E-1,-1.7480376E-1,-5.1517135E-1,2.4693955E-1,-6.36892E-1,2.7146018E-1,4.8572522E-1,-1.663795E-2,3.1136596E-1,3.0557487E-2,-2.8306633E-1,1.8682604E-1,-1.3414843E-1,-4.0029886E-1,2.317399E-1,-2.500876E-1,-3.1666026E-1,1.8806885E-1,-5.685196E-2,2.1855656E-2],"categories":[],"categories_nodes":[],"categories_segments":[],"categories_sizes":[],"default_left":[0,0,0,0,0,0,0,0,0,0,0,0,0,0,0,0,0,0,0,0,0,0,0,0,0,0,0,0,0],"id":14,"left_children":[1,3,5,7,-1,9,11,13,15,17,19,-1,-1,21,23,25,27,-1,-1,-1,-1,-1,-1,-1,-1,-1,-1,-1,-1],"loss_changes":[8.083934E0,1.2781629E1,5.1376996E0,6.946535E0,0E0,3.0674849E0,9.395931E0,1.2725138E1,8.43668E0,1.2057981E0,2.7579303E0,0E0,0E0,5.2486496E0,1.3925365E1,8.536685E0,6.7924166E0,0E0,0E0,0E0,0E0,0E0,0E0,0E0,0E0,0E0,0E0,0E0,0E0],"parents":[2147483647,0,0,1,1,2,2,3,3,5,5,6,6,7,7,8,8,9,9,10,10,13,13,14,14,15,15,16,16],"right_children":[2,4,6,8,-1,10,12,14,16,18,20,-1,-1,22,24,26,28,-1,-1,-1,-1,-1,-1,-1,-1,-1,-1,-1,-1],"split_conditions":[2.47E2,4.01E2,8.2E1,8.6E1,-5.4537106E-1,8.38E-1,7.67E-1,4.67E-1,4.9E1,3.51E2,1.34E2,-5.1517135E-1,2.4693955E-1,4.5E-1,9.7E1,3.1E-1,7.5E1,3.1136596E-1,3.0557487E-2,-2.8306633E-1,1.8682604E-1,-1.3414843E-1,-4.0029886E-1,2.317399E-1,-2.500876E-1,-3.1666026E-1,1.8806885E-1,-5.685196E-2,2.1855656E-2],"split_indices":[3,6,18,12,0,23,23,20,18,13,14,0,0,20,13,22,9,0,0,0,0,0,0,0,0,0,0,0,0],"split_type":[0,0,0,0,0,0,0,0,0,0,0,0,0,0,0,0,0,0,0,0,0,0,0,0,0,0,0,0,0],"sum_hessian":[5.6366583E2,5.415209E2,2.2144997E1,5.3853265E2,2.9881997E0,1.8186907E1,3.9580908E0,6.616247E1,4.7237018E2,1.5647111E1,2.5397954E0,1.689407E0,2.268684E0,4.3173832E1,2.2988636E1,3.51933E1,4.3717688E2,1.3875243E1,1.771868E0,1.2000418E0,1.3397536E0,3.5230804E1,7.9430246E0,1.6024633E1,6.964004E0,2.409554E0,3.2783745E1,1.487391E2,2.8843777E2],"tree_param":{"num_deleted":"0","num_feature":"26","num_nodes":"29","size_leaf_vector":"1"}},{"base_weights":[-8.602221E-3,-5.4119613E-2,2.6679194E-1,-1.06238514E-1,2.3813324E-1,-4.533144E-1,4.1030785E-1,-6.697912E-2,-1.050591E0,-1.8654329E-1,4.2794052E-1,-4.070492E-1,2.8963453E-1,2.4026962E-1,1.0152135E0,-8.934681E-1,-3.492334E-2,5.751203E-2,-4.8018607E-1,-3.8286158E-1,1.795394E-1,-6.61986E-1,5.498464E-1,-2.8655908E-1,2.7711487E-1,3.7145242E-1,-5.857507E-1,7.8550205E-2,3.1663126E-1,-3.2404086E-1,1.7221266E-1,6.480683E-3,-1.4206266E-1,-2.6556125E-1,2.1918552E-1,-3.2363668E-1,1.8638277E-1,-4.653971E-1,1.5472661E-1,-2.0128032E-2,2.0851894E-1,-5.789664E-2,1.5869433E-1],"categories":[],"categories_nodes":[],"categories_segments":[],"categories_sizes":[],"default_left":[0,0,0,0,0,0,1,0,0,0,0,0,0,0,0,0,0,0,0,0,0,0,0,0,0,0,0,0,0,0,0,0,0,0,0,0,0,0,0,0,0,0,0],"id":15,"left_children":[1,3,5,7,9,11,13,15,17,19,21,-1,23,25,27,29,31,33,-1,-1,35,37,39,-1,-1,41,-1,-1,-1,-1,-1,-1,-1,-1,-1,-1,-1,-1,-1,-1,-1,-1,-1],"loss_changes":[6.9356904E0,7.2552805E0,8.297018E0,1.488982E1,5.895277E0,9.466778E0,6.5411625E0,1.0261012E1,9.866795E0,9.396603E0,7.0292645E0,0E0,7.3878865E0,1.5913937E1,1.5288162E-1,4.582279E0,9.308005E0,4.6350365E0,0E0,0E0,1.0719384E1,6.5609508E0,4.137703E0,0E0,0E0,4.6066904E0,0E0,0E0,0E0,0E0,0E0,0E0,0E0,0E0,0E0,0E0,0E0,0E0,0E0,0E0,0E0,0E0,0E0],"parents":[2147483647,0,0,1,1,2,2,3,3,4,4,5,5,6,6,7,7,8,8,9,9,10,10,12,12,13,13,14,14,15,15,16,16,17,17,20,20,21,21,22,22,25,25],"right_children":[2,4,6,8,10,12,14,16,18,20,22,-1,24,26,28,30,32,34,-1,-1,36,38,40,-1,-1,42,-1,-1,-1,-1,-1,-1,-1,-1,-1,-1,-1,-1,-1,-1,-1,-1,-1],"split_conditions":[5.3E1,4.9E1,6E0,1.01E2,8E1,1.07E2,4.04E-1,4.1E1,6.55E-1,2.6E1,6.7E1,-4.070492E-1,3.68E-1,3.88E-1,5.3E1,9.11E-1,5.26E-1,9.2E1,-4.8018607E-1,-3.8286158E-1,5.8E1,2.47E2,5.48E-1,-2.8655908E-1,2.7711487E-1,4.93E-1,-5.857507E-1,7.8550205E-2,3.1663126E-1,-3.2404086E-1,1.7221266E-1,6.480683E-3,-1.4206266E-1,-2.6556125E-1,2.1918552E-1,-3.2363668E-1,1.8638277E-1,-4.653971E-1,1.5472661E-1,-2.0128032E-2,2.0851894E-1,-5.789664E-2,1.5869433E-1],"split_indices":[15,16,16,18,9,9,22,9,23,14,18,0,22,22,9,23,20,9,0,0,16,3,25,0,0,25,0,0,0,0,0,0,0,0,0,0,0,0,0,0,0,0,0],"split_type":[0,0,0,0,0,0,0,0,0,0,0,0,0,0,0,0,0,0,0,0,0,0,0,0,0,0,0,0,0,0,0,0,0,0,0,0,0,0,0,0,0,0,0],"sum_hessian":[5.511443E2,4.7366068E2,7.7483574E1,4.0251474E2,7.1145966E1,1.2517426E1,6.496615E1,3.8747714E2,1.5037591E1,2.1981516E1,4.9164448E1,5.2755E0,7.2419252E0,5.1801903E1,1.31642475E1,1.3464025E1,3.7401312E2,5.285243E0,9.752348E0,4.9025974E0,1.7078918E1,4.5000906E0,4.4664356E1,2.2730465E0,4.968879E0,4.96615E1,2.1404026E0,1.047847E0,1.2116401E1,1.2178837E1,1.2851876E0,3.3215805E2,4.1855064E1,2.070421E0,3.2148218E0,4.06298E0,1.3015939E1,2.3832476E0,2.116843E0,8.612579E0,3.6051777E1,1.0786671E1,3.887483E1],"tree_param":{"num_deleted":"0","num_feature":"26","num_nodes":"43","size_leaf_vector":"1"}},{"base_weights":[-9.773776E-3,-3.202966E-1,1.9288228E-3,1.4245066E-1,-7.111468E-2,3.424552E-1,-6.270633E-2,-4.3666124E-1,-4.1055553E-2,-2.5395542E-1,4.017374E-1,-4.1163373E-1,4.5395184E-1,-4.5456648E-1,2.4547057E-2,-2.6766858E-1,1.3477671E-1,-5.3581428E-2,-4.3984416E-1,-2.7761443E-3,2.657975E-1,4.786681E-2,-2.255827E-1,-4.184781E-2,7.44634E-2],"categories":[],"categories_nodes":[],"categories_segments":[],"categories_sizes":[],"default_left":[0,0,0,0,0,0,0,0,0,0,0,0,0,0,0,0,0,0,0,0,0,0,0,0,0],"id":16,"left_children":[1,-1,3,5,7,9,11,-1,13,-1,15,17,19,21,23,-1,-1,-1,-1,-1,-1,-1,-1,-1,-1],"loss_changes":[6.584894E0,0E0,5.4184785E0,7.4297657E0,1.4395709E1,6.7948456E0,1.6406498E1,0E0,9.2619505E0,0E0,5.805895E0,1.3063493E1,7.361508E0,8.656686E0,1.0867976E1,0E0,0E0,0E0,0E0,0E0,0E0,0E0,0E0,0E0,0E0],"parents":[2147483647,0,0,2,2,3,3,4,4,5,5,6,6,8,8,10,10,11,11,12,12,13,13,14,14],"right_children":[2,-1,4,6,8,10,12,-1,14,-1,16,18,20,22,24,-1,-1,-1,-1,-1,-1,-1,-1,-1,-1],"split_conditions":[8E0,-3.202966E-1,6.5E1,3E1,6.6E1,4.39E-1,8.3E-1,-4.3666124E-1,8E0,-2.5395542E-1,1.2E1,7.95E-1,1.25E2,3E0,3.7E1,-2.6766858E-1,1.3477671E-1,-5.3581428E-2,-4.3984416E-1,-2.7761443E-3,2.657975E-1,4.786681E-2,-2.255827E-1,-4.184781E-2,7.44634E-2],"split_indices":[11,0,18,1,18,21,23,0,16,0,15,23,12,16,15,0,0,0,0,0,0,0,0,0,0],"split_type":[0,0,0,0,0,0,0,0,0,0,0,0,0,0,0,0,0,0,0,0,0,0,0,0,0],"sum_hessian":[5.3073303E2,4.8196335E0,5.259134E2,1.7954764E2,3.4636578E2,9.057659E1,8.897104E1,6.352838E0,3.4001294E2,3.6709955E0,8.6905594E1,5.3227135E1,3.5743904E1,4.5744427E1,2.9426852E2,2.448703E0,8.4456894E1,4.4551422E1,8.67571E0,1.7722038E1,1.8021866E1,1.5075295E1,3.066913E1,1.6997896E2,1.2428956E2],"tree_param":{"num_deleted":"0","num_feature":"26","num_nodes":"25","size_leaf_vector":"1"}},{"base_weights":[-9.892356E-3,-7.674176E-1,4.9542654E-3,-2.9605353E-1,6.23692E-2,1.5140629E-1,-7.115256E-2,1.9594343E-4,5.850009E-1,-8.284621E-1,-2.6040794E-2,-5.369993E-1,1.2342028E-1,7.9753E-1,-4.2501333E-1,5.0071096E-1,-1.1087772E0,-2.204008E-1,1.435434E-1,-1.9916512E-2,-3.2681882E-1,1.6723515E-1,-9.39104E-3,3.1374377E-1,-3.7136324E-2,-3.1683514E-1,1.3286933E-1,3.6459923E-2,2.0824866E-1,6.9538556E-2,-3.8604683E-1,-1.0566014E-1,8.451853E-2,-1.7112239E-1,7.125538E-2],"categories":[],"categories_nodes":[],"categories_segments":[],"categories_sizes":[],"default_left":[0,0,0,0,0,0,0,0,0,0,0,0,0,0,0,0,0,0,0,0,0,0,0,0,0,0,0,0,0,0,0,0,0,0,0],"id":17,"left_children":[1,3,5,-1,-1,7,9,11,13,15,17,19,21,23,25,27,29,31,33,-1,-1,-1,-1,-1,-1,-1,-1,-1,-1,-1,-1,-1,-1,-1,-1],"loss_changes":[5.8593946E0,2.3483558E0,5.7134657E0,0E0,0E0,1.1491946E1,1.1503704E1,8.735181E0,1.0067457E1,7.6095676E0,1.0559917E1,6.3284736E0,7.2256556E0,8.773808E0,5.1405616E0,2.0805168E-1,4.10458E0,9.975538E0,1.1621114E1,0E0,0E0,0E0,0E0,0E0,0E0,0E0,0E0,0E0,0E0,0E0,0E0,0E0,0E0,0E0,0E0],"parents":[2147483647,0,0,1,1,2,2,5,5,6,6,7,7,8,8,9,9,10,10,11,11,12,12,13,13,14,14,15,15,16,16,17,17,18,18],"right_children":[2,4,6,-1,-1,8,10,12,14,16,18,20,22,24,26,28,30,32,34,-1,-1,-1,-1,-1,-1,-1,-1,-1,-1,-1,-1,-1,-1,-1,-1],"split_conditions":[2E0,2.15E2,9.23E2,-2.9605353E-1,6.23692E-2,8.86E2,2.69E2,5.46E-1,6E1,1.3E1,3.5E1,2.1E1,6.29E-1,6.5E1,1.8E2,8.4E1,2.9E1,1.86E2,8.7E1,-1.9916512E-2,-3.2681882E-1,1.6723515E-1,-9.39104E-3,3.1374377E-1,-3.7136324E-2,-3.1683514E-1,1.3286933E-1,3.6459923E-2,2.0824866E-1,6.9538556E-2,-3.8604683E-1,-1.0566014E-1,8.451853E-2,-1.7112239E-1,7.125538E-2],"split_indices":[16,3,2,0,0,2,4,24,11,11,0,7,23,17,3,9,17,10,10,0,0,0,0,0,0,0,0,0,0,0,0,0,0,0,0],"split_type":[0,0,0,0,0,0,0,0,0,0,0,0,0,0,0,0,0,0,0,0,0,0,0,0,0,0,0,0,0,0,0,0,0,0,0],"sum_hessian":[5.1965027E2,9.014414E0,5.1063586E2,7.3491683E0,1.6652455E0,1.7428009E2,3.3635577E2,1.2995906E2,4.4321037E1,1.7933537E1,3.1842224E2,2.3621868E1,1.0633719E2,3.6789993E1,7.5310426E0,2.9864426E0,1.4947095E1,1.4823306E2,1.7018916E2,1.33600445E1,1.0261825E1,2.7261238E1,7.907595E1,2.887378E1,7.916214E0,4.2348275E0,3.296215E0,1.5589764E0,1.4274663E0,1.717031E0,1.3230063E1,1.1765055E2,3.0582516E1,1.920598E1,1.5098318E2],"tree_param":{"num_deleted":"0","num_feature":"26","num_nodes":"35","size_leaf_vector":"1"}},{"base_weights":[-9.174259E-3,-2.753802E-2,5.6257087E-1,-1.9472915E-1,3.3567064E-2,-2.8627425E-1,7.205412E-1,-5.5939097E-2,-8.2925916E-1,-3.5927626E-1,8.530824E-2,9.829372E-2,-2.177138E-1,9.588423E-1,1.3804667E-1,2.9901868E-1,-2.611592E-1,-1.198236E0,5.4577824E-2,3.9367095E-1,-6.244751E-1,5.9176767E-1,4.294103E-2,3.097302E-1,8.047725E-2,-1.7300807E-1,2.270784E-1,1.4306436E-1,-2.2498329E-1,-3.7195873E-1,-5.655069E-4,-4.3412775E-1,7.05992E-2,1.4585741E-1,-4.1543293E-1,-2.2636814E-1,2.1604097E-1,-2.4066089E-1,1.558238E-1,2.4356876E-1,1.4789135E-2,-3.1826428E-1,1.9906716E-2],"categories":[],"categories_nodes":[],"categories_segments":[],"categories_sizes":[],"default_left":[0,0,0,0,0,0,0,0,0,0,0,0,0,0,0,0,0,0,0,0,0,0,0,0,0,0,0,0,0,0,0,0,0,0,0,0,0,0,0,0,0,0,0],"id":18,"left_children":[1,3,5,7,9,11,13,15,17,19,21,-1,-1,23,25,27,29,31,33,35,37,39,41,-1,-1,-1,-1,-1,-1,-1,-1,-1,-1,-1,-1,-1,-1,-1,-1,-1,-1,-1,-1],"loss_changes":[5.3264647E0,5.023199E0,2.3233123E0,1.1541359E1,7.357601E0,1.0991315E0,1.7547607E0,8.020831E0,7.7430153E0,8.661102E0,6.826437E0,0E0,0E0,2.0482159E-1,2.6991916E0,7.897291E0,1.7665241E1,6.281351E0,5.5749993E0,4.8882103E0,6.831423E0,2.8942385E0,7.71432E0,0E0,0E0,0E0,0E0,0E0,0E0,0E0,0E0,0E0,0E0,0E0,0E0,0E0,0E0,0E0,0E0,0E0,0E0,0E0,0E0],"parents":[2147483647,0,0,1,1,2,2,3,3,4,4,5,5,6,6,7,7,8,8,9,9,10,10,13,13,14,14,15,15,16,16,17,17,18,18,19,19,20,20,21,21,22,22],"right_children":[2,4,6,8,10,12,14,16,18,20,22,-1,-1,24,26,28,30,32,34,36,38,40,42,-1,-1,-1,-1,-1,-1,-1,-1,-1,-1,-1,-1,-1,-1,-1,-1,-1,-1,-1,-1],"split_conditions":[8.2E1,7.4E1,2.55E2,5.5E1,8.6E1,7.66E2,2.92E2,1.23E2,3.4E1,2.1E1,2.8E1,9.829372E-2,-2.177138E-1,1.89E2,2.42E2,2.29E2,1.5E2,1.65E2,3.83E2,4.95E-1,2.05E2,5.72E-1,2.8E1,3.097302E-1,8.047725E-2,-1.7300807E-1,2.270784E-1,1.4306436E-1,-2.2498329E-1,-3.7195873E-1,-5.655069E-4,-4.3412775E-1,7.05992E-2,1.4585741E-1,-4.1543293E-1,-2.2636814E-1,2.1604097E-1,-2.4066089E-1,1.558238E-1,2.4356876E-1,1.4789135E-2,-3.1826428E-1,1.9906716E-2],"split_indices":[16,8,4,8,12,2,4,12,16,15,0,0,0,12,3,6,12,14,4,21,3,24,14,0,0,0,0,0,0,0,0,0,0,0,0,0,0,0,0,0,0,0,0],"split_type":[0,0,0,0,0,0,0,0,0,0,0,0,0,0,0,0,0,0,0,0,0,0,0,0,0,0,0,0,0,0,0,0,0,0,0,0,0,0,0,0,0,0,0],"sum_hessian":[5.048363E2,4.900484E2,1.4787926E1,1.3057959E2,3.594688E2,2.1928043E0,1.2595121E1,1.0803694E2,2.2542645E1,4.1143593E1,3.1832523E2,1.0209205E0,1.171884E0,8.479872E0,4.1152496E0,3.9411686E1,6.862525E1,1.5652463E1,6.89018E0,1.0590584E1,3.0553007E1,2.357238E1,2.9475284E2,7.2159E0,1.2639716E0,1.9413595E0,2.17389E0,3.4164173E1,5.247511E0,1.3580352E1,5.5044903E1,1.3329183E1,2.3232808E0,5.8101335E0,1.0800465E0,2.0542297E0,8.536354E0,2.6702845E1,3.8501623E0,1.641479E1,7.157592E0,5.202173E0,2.8955066E2],"tree_param":{"num_deleted":"0","num_feature":"26","num_nodes":"43","size_leaf_vector":"1"}},{"base_weights":[-1.0612217E-2,-6.0343046E-2,1.999953E-1,-9.427293E-2,3.913487E-1,8.6581975E-2,7.3150396E-1,-1.2126858E-2,-3.0515242E-1,5.3079623E-1,-7.881046E-1,2.9837817E-1,-7.064457E-1,-2.0770754E-1,9.740503E-1,-8.8813536E-2,3.3822843E-1,-7.1777445E-1,-2.0918347E-2,-1.7197815E-1,7.4378604E-1,-3.730312E-1,4.1625354E-2,-3.374143E-1,3.6359474E-1,5.7579346E-2,-1.4539238E0,3.2553878E-1,-3.997577E-2,-3.2904476E-1,-1.2059521E-2,2.218981E-1,-1.0319656E-2,-2.3102937E-2,-3.101584E-1,4.7441747E-2,-2.0355456E-1,1.9108677E-1,-3.129198E-1,3.1116847E-3,2.5753233E-1,-1.8220627E-1,1.3258377E-1,1.4993598E-1,-2.864422E-1,-5.9579253E-1,1.0416151E-1],"categories":[],"categories_nodes":[],"categories_segments":[],"categories_sizes":[],"default_left":[1,0,0,0,0,0,0,0,0,0,0,0,0,0,0,0,0,0,0,0,0,0,0,0,0,0,0,0,0,0,0,0,0,0,0,0,0,0,0,0,0,0,0,0,0,0,0],"id":19,"left_children":[1,3,5,7,9,11,13,15,17,19,21,23,25,-1,27,29,31,33,35,37,39,-1,-1,-1,41,43,45,-1,-1,-1,-1,-1,-1,-1,-1,-1,-1,-1,-1,-1,-1,-1,-1,-1,-1,-1,-1],"loss_changes":[5.1433883E0,6.1228757E0,5.592098E0,6.408662E0,5.013585E0,1.3388063E1,6.325876E0,7.2154026E0,1.215058E1,3.957275E0,1.5890646E0,6.220758E0,9.697243E0,0E0,1.9155264E0,1.0746771E1,7.240381E0,8.483557E0,7.460715E0,5.4294825E0,1.6578054E0,0E0,0E0,0E0,4.8810577E0,4.6346498E0,8.880098E0,0E0,0E0,0E0,0E0,0E0,0E0,0E0,0E0,0E0,0E0,0E0,0E0,0E0,0E0,0E0,0E0,0E0,0E0,0E0,0E0],"parents":[2147483647,0,0,1,1,2,2,3,3,4,4,5,5,6,6,7,7,8,8,9,9,10,10,11,11,12,12,14,14,15,15,16,16,17,17,18,18,19,19,20,20,24,24,25,25,26,26],"right_children":[2,4,6,8,10,12,14,16,18,20,22,24,26,-1,28,30,32,34,36,38,40,-1,-1,-1,42,44,46,-1,-1,-1,-1,-1,-1,-1,-1,-1,-1,-1,-1,-1,-1,-1,-1,-1,-1,-1,-1],"split_conditions":[4.08E-1,3.07E2,5E1,8.3E1,4.55E2,3.5E1,8E0,5.72E-1,1.24E2,4.6E1,1.113E3,5.08E-1,8E1,-2.0770754E-1,2.4E1,3.6E1,5.77E-1,3.28E2,1.2E2,9.31E2,2.6E1,-3.730312E-1,4.1625354E-2,-3.374143E-1,3E1,7.9E1,4.53E-1,3.2553878E-1,-3.997577E-2,-3.2904476E-1,-1.2059521E-2,2.218981E-1,-1.0319656E-2,-2.3102937E-2,-3.101584E-1,4.7441747E-2,-2.0355456E-1,1.9108677E-1,-3.129198E-1,3.1116847E-3,2.5753233E-1,-1.8220627E-1,1.3258377E-1,1.4993598E-1,-2.864422E-1,-5.9579253E-1,1.0416151E-1],"split_indices":[22,13,15,18,4,15,16,21,10,14,2,25,14,0,16,17,25,19,8,2,16,0,0,0,14,18,22,0,0,0,0,0,0,0,0,0,0,0,0,0,0,0,0,0,0,0,0],"split_type":[0,0,0,0,0,0,0,0,0,0,0,0,0,0,0,0,0,0,0,0,0,0,0,0,0,0,0,0,0,0,0,0,0,0,0,0,0,0,0,0,0,0,0,0,0,0,0],"sum_hessian":[4.889249E2,3.9610577E2,9.281912E1,3.691663E2,2.6939497E1,7.745473E1,1.5364392E1,2.6643616E2,1.0273012E2,2.4582998E1,2.3565004E0,6.1621143E1,1.5833589E1,1.966363E0,1.3398029E1,2.1920296E2,4.723321E1,4.1279488E1,6.1450634E1,5.7623343E0,1.8820663E1,1.3511575E0,1.0053428E0,1.9883113E0,5.963283E1,8.286559E0,7.5470295E0,1.2194739E1,1.2032896E0,9.09353E0,2.1010944E2,2.226361E1,2.49696E1,1.4047113E1,2.7232374E1,4.889618E1,1.2554456E1,3.1271205E0,2.6352139E0,2.6918926E0,1.612877E1,3.9486282E0,5.56842E1,6.119785E0,2.1667743E0,5.746803E0,1.8002267E0],"tree_param":{"num_deleted":"0","num_feature":"26","num_nodes":"47","size_leaf_vector":"1"}},{"base_weights":[-9.516115E-3,2.160671E-1,-4.9353298E-2,-2.653798E-1,5.102336E-1,-7.6264447E-1,-2.668818E-2,3.159284E-1,-6.161613E-1,7.2190505E-1,-7.746212E-1,-9.826895E-1,1.0646286E-1,5.642978E-1,-5.1661648E-2,-4.162852E-1,7.4565303E-1,1.4141612E-1,-3.0842677E-1,8.045169E-1,-2.3884796E-1,-3.4426272E-1,1.8302181E-1,-3.3864075E-1,5.8253523E-2,-2.7342987E-1,9.012744E-1,-2.9218355E-1,1.5634561E-2,1.8165891E-1,-2.652161E-1,1.1944649E-2,2.7100092E-1,-2.3138186E-1,2.2041711E-1,-1.7253116E-1,2.5916898E-1,3.185512E-1,-6.414967E-2,-2.3520048E-1,1.6195642E-2,-4.7780618E-2,4.2720832E-2],"categories":[],"categories_nodes":[],"categories_segments":[],"categories_sizes":[],"default_left":[0,0,0,0,0,0,0,0,0,0,0,0,0,0,0,0,0,0,0,0,0,0,0,0,0,0,0,0,0,0,0,0,0,0,0,0,0,0,0,0,0,0,0],"id":20,"left_children":[1,3,5,7,9,11,13,15,17,19,21,23,-1,25,27,29,31,33,-1,35,-1,-1,-1,-1,-1,-1,37,39,41,-1,-1,-1,-1,-1,-1,-1,-1,-1,-1,-1,-1,-1,-1],"loss_changes":[4.2967405E0,1.0299931E1,6.5461335E0,5.8793616E0,1.27684145E1,3.41578E0,5.8544865E0,3.8196015E0,5.676931E0,5.539072E0,4.2280188E0,2.056697E0,0E0,8.821058E0,6.1490393E0,2.8135214E0,7.861209E-1,4.423501E0,0E0,3.5723E0,0E0,0E0,0E0,0E0,0E0,0E0,2.6618624E0,1.4180521E1,6.620427E0,0E0,0E0,0E0,0E0,0E0,0E0,0E0,0E0,0E0,0E0,0E0,0E0,0E0,0E0],"parents":[2147483647,0,0,1,1,2,2,3,3,4,4,5,5,6,6,7,7,8,8,9,9,10,10,11,11,13,13,14,14,15,15,16,16,17,17,19,19,26,26,27,27,28,28],"right_children":[2,4,6,8,10,12,14,16,18,20,22,24,-1,26,28,30,32,34,-1,36,-1,-1,-1,-1,-1,-1,38,40,42,-1,-1,-1,-1,-1,-1,-1,-1,-1,-1,-1,-1,-1,-1],"split_conditions":[7.7E1,1.35E2,4.03E-1,3E1,1.42E2,1.08E2,4.99E-1,4.7E1,3.47E-1,6E1,1.327E3,2.26E2,1.0646286E-1,2.86E-1,4.45E-1,1.6E1,5.6E1,5E-1,-3.0842677E-1,4.9E1,-2.3884796E-1,-3.4426272E-1,1.8302181E-1,-3.3864075E-1,5.8253523E-2,-2.7342987E-1,2.95E2,4E1,5.9E1,1.8165891E-1,-2.652161E-1,1.1944649E-2,2.7100092E-1,-2.3138186E-1,2.2041711E-1,-1.7253116E-1,2.5916898E-1,3.185512E-1,-6.414967E-2,-2.3520048E-1,1.6195642E-2,-4.7780618E-2,4.2720832E-2],"split_indices":[5,13,20,0,12,17,24,7,22,11,2,12,0,22,20,0,5,25,0,5,0,0,0,0,0,0,6,15,17,0,0,0,0,0,0,0,0,0,0,0,0,0,0],"split_type":[0,0,0,0,0,0,0,0,0,0,0,0,0,0,0,0,0,0,0,0,0,0,0,0,0,0,0,0,0,0,0,0,0,0,0,0,0,0,0,0,0,0,0],"sum_hessian":[4.7594086E2,7.077042E1,4.0517044E2,2.6878176E1,4.3892242E1,1.1472496E1,3.9369794E2,1.0152693E1,1.6725483E1,3.8060215E1,5.8320293E0,9.685942E0,1.786555E0,1.5086509E1,3.7861145E2,3.7663808E0,6.386312E0,6.1224203E0,1.0603062E1,3.6541683E1,1.5185312E0,4.729549E0,1.1024803E0,8.652535E0,1.0334059E0,2.4876294E0,1.259888E1,8.2042694E1,2.9656876E2,1.09026E0,2.6761208E0,1.3948869E0,4.991425E0,2.2938387E0,3.8285818E0,1.1494837E0,3.5392197E1,1.1054872E1,1.5440079E0,3.336902E1,4.8673676E1,1.24516205E2,1.7205254E2],"tree_param":{"num_deleted":"0","num_feature":"26","num_nodes":"43","size_leaf_vector":"1"}},{"base_weights":[-9.471678E-3,-2.2713466E-2,5.896752E-1,-1.1363347E-2,-1.0860032E0,8.6689997E-1,-1.7895067E-1,2.0882985E-1,-4.8562977E-2,6.246097E-2,-4.5411786E-1,2.802355E-1,6.5814234E-2,-7.0433897E-1,3.1085563E-1,-3.429426E-1,1.79018E-2,9.7782366E-2,-2.8536677E-1,2.7580505E-2,2.2326034E-1,-4.9822956E-2,-2.829694E-1,-7.24433E-3,2.027031E-1],"categories":[],"categories_nodes":[],"categories_segments":[],"categories_sizes":[],"default_left":[0,0,0,0,0,0,0,0,0,0,0,0,0,0,0,0,0,0,0,0,0,0,0,0,0],"id":21,"left_children":[1,3,5,7,9,11,-1,13,15,-1,-1,-1,-1,17,19,21,23,-1,-1,-1,-1,-1,-1,-1,-1],"loss_changes":[3.682619E0,5.460036E0,3.817789E0,3.6934006E0,2.9604182E0,1.6693163E-1,0E0,6.291231E0,7.5485744E0,0E0,0E0,0E0,0E0,2.0540204E0,5.559179E0,7.3871803E0,8.740994E0,0E0,0E0,0E0,0E0,0E0,0E0,0E0,0E0],"parents":[2147483647,0,0,1,1,2,2,3,3,4,4,5,5,7,7,8,8,13,13,14,14,15,15,16,16],"right_children":[2,4,6,8,10,12,-1,14,16,-1,-1,-1,-1,18,20,22,24,-1,-1,-1,-1,-1,-1,-1,-1],"split_conditions":[2.61E2,4.01E2,8.2E1,2.81E-1,4.8E1,2.67E2,-1.7895067E-1,5.19E-1,7.4E1,6.246097E-2,-4.5411786E-1,2.802355E-1,6.5814234E-2,7.1E1,2.67E-1,5.5E1,2.14E2,9.7782366E-2,-2.8536677E-1,2.7580505E-2,2.2326034E-1,-4.9822956E-2,-2.829694E-1,-7.24433E-3,2.027031E-1],"split_indices":[3,6,18,22,14,5,0,24,8,0,0,0,0,5,22,8,12,0,0,0,0,0,0,0,0],"split_type":[0,0,0,0,0,0,0,0,0,0,0,0,0,0,0,0,0,0,0,0,0,0,0,0,0],"sum_hessian":[4.6148172E2,4.524443E2,9.037414E0,4.486657E2,3.7786086E0,7.5435534E0,1.4938598E0,6.417649E1,3.844892E2,1.0660816E0,2.7125268E0,6.4331264E0,1.1104273E0,5.856359E0,5.8320133E1,7.005377E1,3.1443542E2,1.070169E0,4.78619E0,3.9551414E1,1.8768719E1,5.509694E1,1.4956832E1,2.9644772E2,1.7987713E1],"tree_param":{"num_deleted":"0","num_feature":"26","num_nodes":"25","size_leaf_vector":"1"}},{"base_weights":[-6.7123002E-3,-6.83632E-2,1.1843217E-1,7.955509E-3,-4.2386317E-1,-2.7227274E-1,2.3656563E-1,2.6298344E-1,-7.97368E-2,-8.9562714E-1,-5.9273157E-2,1.8198703E-1,-9.0918845E-1,5.435489E-1,9.952849E-2,3.435131E-1,-2.9777095E-1,-7.553065E-1,-3.4034714E-2,7.79524E-2,-1.3468258E0,-4.4220945E-1,1.7711046E-1,-2.8889588E-1,4.110113E-1,2.6778618E-2,-1.3194857E0,2.269512E-3,7.692357E-1,-6.074358E-1,2.02289E-1,-6.306096E-2,1.688479E-1,-3.576606E-3,-3.226008E-1,3.895172E-2,-8.024564E-2,-3.0172607E-1,2.1281137E-1,1.10693835E-1,-4.5207465E-1,-3.620116E-1,1.0326599E-1,-9.2267044E-2,2.0881172E-1,-2.5583425E-1,2.0589764E-1,-4.506612E-1,2.0132829E-2,1.0632946E-1,-3.9623588E-1,2.5339362E-1,-1.4279792E-1,-3.4750503E-1,1.6912906E-1,-1.5154523E-1,9.0212956E-2],"categories":[],"categories_nodes":[],"categories_segments":[],"categories_sizes":[],"default_left":[1,1,0,0,0,0,0,0,0,0,0,0,0,0,0,0,0,0,0,0,0,0,0,0,0,0,0,0,0,0,0,0,0,0,0,0,0,0,0,0,0,0,0,0,0,0,0,0,0,0,0,0,0,0,0,0,0],"id":22,"left_children":[1,3,5,7,9,11,13,15,17,19,21,23,25,27,29,31,-1,33,35,37,39,-1,41,-1,43,45,47,49,51,53,55,-1,-1,-1,-1,-1,-1,-1,-1,-1,-1,-1,-1,-1,-1,-1,-1,-1,-1,-1,-1,-1,-1,-1,-1,-1,-1],"loss_changes":[3.520694E0,8.296061E0,7.016717E0,5.670378E0,9.241538E0,1.041778E1,4.8339286E0,6.899798E0,5.8017244E0,1.0421854E1,1.0813005E1,6.038046E0,5.7644453E0,4.351574E0,6.047823E0,7.611215E0,0E0,2.8211455E0,6.8379083E0,6.4495864E0,4.9792786E0,0E0,6.8736854E0,0E0,4.02993E0,3.7914455E0,2.7336369E0,5.8213253E0,2.7634134E0,7.492503E0,5.1620293E0,0E0,0E0,0E0,0E0,0E0,0E0,0E0,0E0,0E0,0E0,0E0,0E0,0E0,0E0,0E0,0E0,0E0,0E0,0E0,0E0,0E0,0E0,0E0,0E0,0E0,0E0],"parents":[2147483647,0,0,1,1,2,2,3,3,4,4,5,5,6,6,7,7,8,8,9,9,10,10,11,11,12,12,13,13,14,14,15,15,17,17,18,18,19,19,20,20,22,22,24,24,25,25,26,26,27,27,28,28,29,29,30,30],"right_children":[2,4,6,8,10,12,14,16,18,20,22,24,26,28,30,32,-1,34,36,38,40,-1,42,-1,44,46,48,50,52,54,56,-1,-1,-1,-1,-1,-1,-1,-1,-1,-1,-1,-1,-1,-1,-1,-1,-1,-1,-1,-1,-1,-1,-1,-1,-1,-1],"split_conditions":[3.83E-1,3.62E-1,8.4E1,9.1E1,1.067E3,6.6E1,1.01E2,1.7E2,1.7E1,3E1,7.2E1,4.86E-1,1.21E2,1.28E2,6E0,2.4E1,-2.9777095E-1,5.8E1,5.36E-1,8.62E2,4.76E-1,-4.4220945E-1,5.6E1,-2.8889588E-1,1.33E2,1.4E1,5E1,6E1,8.5E1,5.32E-1,8.5E1,-6.306096E-2,1.688479E-1,-3.576606E-3,-3.226008E-1,3.895172E-2,-8.024564E-2,-3.0172607E-1,2.1281137E-1,1.10693835E-1,-4.5207465E-1,-3.620116E-1,1.0326599E-1,-9.2267044E-2,2.0881172E-1,-2.5583425E-1,2.0589764E-1,-4.506612E-1,2.0132829E-2,1.0632946E-1,-3.9623588E-1,2.5339362E-1,-1.4279792E-1,-3.4750503E-1,1.6912906E-1,-1.5154523E-1,9.0212956E-2],"split_indices":[22,22,10,10,2,10,10,8,11,0,9,21,13,8,16,15,0,18,21,2,25,0,17,0,3,16,16,11,18,21,9,0,0,0,0,0,0,0,0,0,0,0,0,0,0,0,0,0,0,0,0,0,0,0,0,0,0],"split_type":[0,0,0,0,0,0,0,0,0,0,0,0,0,0,0,0,0,0,0,0,0,0,0,0,0,0,0,0,0,0,0,0,0,0,0,0,0,0,0,0,0,0,0,0,0,0,0,0,0,0,0,0,0,0,0,0,0],"sum_hessian":[4.5427872E2,3.0465024E2,1.496285E2,2.5161185E2,5.3038387E1,3.443528E1,1.1519321E2,6.3868805E1,1.8774304E2,2.248597E1,3.055242E1,2.0516682E1,1.3918598E1,3.463633E1,8.055688E1,6.0701866E1,3.1669383E0,1.0912176E1,1.7683087E2,7.3828235E0,1.5103146E1,3.6244276E0,2.6927992E1,2.8856359E0,1.7631046E1,4.5268087E0,9.391789E0,1.0489274E1,2.4147055E1,9.60004E0,7.095684E1,1.7233278E1,4.346859E1,3.5961256E0,7.3160505E0,1.0415896E2,7.267191E1,2.4997125E0,4.883111E0,1.1775545E0,1.3925591E1,2.231137E0,2.4696854E1,4.9848824E0,1.2646163E1,1.8143051E0,2.7125037E0,8.224616E0,1.1671733E0,8.86244E0,1.6268331E0,2.307156E1,1.0754942E0,6.536392E0,3.0636482E0,8.161339E0,6.2795498E1],"tree_param":{"num_deleted":"0","num_feature":"26","num_nodes":"57","size_leaf_vector":"1"}},{"base_weights":[-1.23382285E-2,7.005463E-1,-2.3939231E-2,-1.9778775E-1,3.6286846E-1,-2.839074E-1,-1.0206394E-2,1.7198105E-1,-2.2814764E-1,1.3342755E-1,-7.427375E-2,-3.4524035E-1,2.3072809E-1,-5.972793E-1,-2.902074E-2,4.3612863E-3,-3.0944163E-1,8.267404E-2,-1.6984987E-1,1.9993068E-1,-2.90088E-1,-1.5539357E-1,7.0385155E-3],"categories":[],"categories_nodes":[],"categories_segments":[],"categories_sizes":[],"default_left":[0,0,0,0,0,0,0,0,0,0,0,0,0,0,0,0,0,0,0,0,0,0,0],"id":23,"left_children":[1,3,5,7,-1,-1,9,-1,-1,11,13,15,17,19,21,-1,-1,-1,-1,-1,-1,-1,-1],"loss_changes":[3.6271303E0,3.4508116E0,5.4440265E0,1.9110308E0,0E0,0E0,3.9229221E0,0E0,0E0,6.2052326E0,6.9575453E0,5.5994377E0,4.084201E0,1.1584334E1,6.9994373E0,0E0,0E0,0E0,0E0,0E0,0E0,0E0,0E0],"parents":[2147483647,0,0,1,1,2,2,3,3,6,6,9,9,10,10,11,11,12,12,13,13,14,14],"right_children":[2,4,6,8,-1,-1,10,-1,-1,12,14,16,18,20,22,-1,-1,-1,-1,-1,-1,-1,-1],"split_conditions":[5.61E2,8.7E1,1.91E2,1.6E1,3.6286846E-1,-2.839074E-1,9.23E2,1.7198105E-1,-2.2814764E-1,5.43E-1,2.1E1,1.6E2,9.3E1,1.52E2,4.6E1,4.3612863E-3,-3.0944163E-1,8.267404E-2,-1.6984987E-1,1.9993068E-1,-2.90088E-1,-1.5539357E-1,7.0385155E-3],"split_indices":[2,11,4,0,0,0,2,0,0,24,15,13,11,6,14,0,0,0,0,0,0,0,0],"split_type":[0,0,0,0,0,0,0,0,0,0,0,0,0,0,0,0,0,0,0,0,0,0,0],"sum_hessian":[4.355517E2,6.023434E0,4.2952826E2,2.3997216E0,3.6237128E0,5.3047147E0,4.2422357E2,1.0045029E0,1.3952187E0,1.3052168E2,2.9370187E2,2.1619051E1,1.08902626E2,2.2417377E1,2.7128452E2,1.4825267E1,6.793784E0,1.0371913E2,5.183499E0,4.891966E0,1.7525412E1,2.54362E1,2.458483E2],"tree_param":{"num_deleted":"0","num_feature":"26","num_nodes":"23","size_leaf_vector":"1"}},{"base_weights":[-1.0754042E-2,-6.16099E-2,1.7160118E-1,-7.1985084E-3,-4.957491E-1,-3.294766E-1,2.309739E-1,-3.303449E-1,1.9989152E-2,-2.947545E-1,-1.6319561E0,1.3127388E-1,9.1461813E-1,3.285066E-1,-4.3140914E-2,-5.743617E-1,4.354497E-1,-5.987552E-1,-1.4883891E-1,8.975204E-1,6.2323716E-3,3.1856644E-1,1.3085757E-2,1.2405241E-1,-3.488049E-1,-2.7404252E-1,9.2789475E-3,-2.7505064E-1,1.277394E-1,-4.0184222E-2,2.4396232E-1,3.7264583E-1,-2.7315456E-3,-1.3783778E-1,4.6841964E-2],"categories":[],"categories_nodes":[],"categories_segments":[],"categories_sizes":[],"default_left":[0,0,0,1,0,0,0,0,0,0,1,0,0,0,0,0,0,0,0,0,0,0,0,0,0,0,0,0,0,0,0,0,0,0,0],"id":24,"left_children":[1,3,5,7,9,-1,11,-1,13,15,17,19,21,23,25,27,29,-1,-1,31,33,-1,-1,-1,-1,-1,-1,-1,-1,-1,-1,-1,-1,-1,-1],"loss_changes":[4.002277E0,7.964176E0,7.350316E0,8.966872E0,8.094651E0,0E0,6.0652804E0,0E0,5.748857E0,7.0137615E0,1.2516203E0,7.694478E0,1.413724E0,6.8350296E0,1.5842279E1,8.743299E0,2.2042634E0,0E0,0E0,3.5319576E0,4.965338E0,0E0,0E0,0E0,0E0,0E0,0E0,0E0,0E0,0E0,0E0,0E0,0E0,0E0,0E0],"parents":[2147483647,0,0,1,1,2,2,3,3,4,4,6,6,8,8,9,9,10,10,11,11,12,12,13,13,14,14,15,15,16,16,19,19,20,20],"right_children":[2,4,6,8,10,-1,12,-1,14,16,18,20,22,24,26,28,30,-1,-1,32,34,-1,-1,-1,-1,-1,-1,-1,-1,-1,-1,-1,-1,-1,-1],"split_conditions":[7.5E1,6E1,4.91E-1,2.39E-1,1.109E3,-3.294766E-1,1.43E2,-3.303449E-1,3.1E-1,1.054E3,4.1E-1,1.96E2,6.8E1,5.71E-1,3.29E-1,5.3E1,3.71E2,-5.987552E-1,-1.4883891E-1,5.74E-1,5.2E1,3.1856644E-1,1.3085757E-2,1.2405241E-1,-3.488049E-1,-2.7404252E-1,9.2789475E-3,-2.7505064E-1,1.277394E-1,-4.0184222E-2,2.4396232E-1,3.7264583E-1,-2.7315456E-3,-1.3783778E-1,4.6841964E-2],"split_indices":[11,11,25,22,2,0,8,0,22,2,22,13,17,24,22,16,4,0,0,21,17,0,0,0,0,0,0,0,0,0,0,0,0,0,0],"split_type":[0,0,0,0,0,0,0,0,0,0,0,0,0,0,0,0,0,0,0,0,0,0,0,0,0,0,0,0,0,0,0,0,0,0,0],"sum_hessian":[4.294267E2,3.3630023E2,9.312644E1,2.997488E2,3.655144E1,3.3781142E0,8.974833E1,6.3110003E0,2.934378E2,3.2127514E1,4.423925E0,7.936593E1,1.0382397E1,4.9130886E1,2.4430692E2,2.338604E1,8.741476E0,2.7770414E0,1.6468835E0,1.0267789E1,6.9098145E1,8.69335E0,1.6890476E0,4.7165062E1,1.9658241E0,1.827245E1,2.2603447E2,1.748288E1,5.9031596E0,3.743815E0,4.997661E0,7.1715937E0,3.096195E0,1.6323576E1,5.2774567E1],"tree_param":{"num_deleted":"0","num_feature":"26","num_nodes":"35","size_leaf_vector":"1"}},{"base_weights":[-1.0764347E-2,-4.812682E-2,2.0723161E-1,-6.8115836E-1,-1.944178E-2,4.3619913E-1,-1.8755225E-2,7.172929E-1,-3.3280408E-1,1.6363634E-3,-6.584409E-1,-4.078852E-1,6.183056E-1,-8.1369853E-1,2.851761E-1,7.9549305E-2,2.5912443E-1,-3.3177948E-1,1.1732572E-2,4.7367242E-1,-4.1522107E-1,-2.699283E-1,1.8169338E-1,8.217214E-1,-4.8916113E-1,-1.134278E0,1.7321478E-1,-1.2577485E-1,7.251944E-1,-3.1557348E-2,3.3954643E-2,2.2703494E-1,-4.611683E-2,1.81323E-1,-9.273163E-2,2.5677511E-2,2.642E-1,-3.593809E-1,1.7994696E-1,-3.885073E-1,-2.5001995E-2,-3.4240767E-1,1.2892883E-1,4.795699E-3,2.4438721E-1],"categories":[],"categories_nodes":[],"categories_segments":[],"categories_sizes":[],"default_left":[0,1,0,0,0,0,0,0,0,0,0,0,0,0,0,0,0,0,0,0,0,0,0,0,0,0,0,0,0,0,0,0,0,0,0,0,0,0,0,0,0,0,0,0,0],"id":25,"left_children":[1,3,5,7,9,11,13,15,-1,17,19,21,23,25,27,-1,-1,-1,29,31,-1,-1,33,35,37,39,-1,41,43,-1,-1,-1,-1,-1,-1,-1,-1,-1,-1,-1,-1,-1,-1,-1,-1],"loss_changes":[3.423132E0,6.497575E0,3.1905298E0,1.0085363E1,4.634928E0,4.9544168E0,7.9420896E0,5.1983833E-2,0E0,3.7484205E0,9.682726E0,1.9125077E0,6.159951E0,4.7066965E0,4.3995075E0,0E0,0E0,0E0,3.9503238E0,1.0110487E0,0E0,0E0,9.285529E-1,8.777847E-1,4.2636857E0,1.1964712E0,0E0,7.92206E0,7.2610617E-1,0E0,0E0,0E0,0E0,0E0,0E0,0E0,0E0,0E0,0E0,0E0,0E0,0E0,0E0,0E0,0E0],"parents":[2147483647,0,0,1,1,2,2,3,3,4,4,5,5,6,6,7,7,9,9,10,10,11,11,12,12,13,13,14,14,18,18,19,19,22,22,23,23,24,24,25,25,27,27,28,28],"right_children":[2,4,6,8,10,12,14,16,-1,18,20,22,24,26,28,-1,-1,-1,30,32,-1,-1,34,36,38,40,-1,42,44,-1,-1,-1,-1,-1,-1,-1,-1,-1,-1,-1,-1,-1,-1,-1,-1],"split_conditions":[4.6E1,2.07E-1,8.3E1,5.61E2,1.01E2,6.8E1,5.9E1,9.8E1,-3.3280408E-1,5.89E-1,6.55E-1,1.96E2,1.96E2,3.9E1,5.93E-1,7.9549305E-2,2.5912443E-1,-3.3177948E-1,1.57E2,5.17E-1,-4.1522107E-1,-2.699283E-1,3.3E1,1.86E2,1.05E2,7.9E1,1.7321478E-1,5E0,5.26E-1,-3.1557348E-2,3.3954643E-2,2.2703494E-1,-4.611683E-2,1.81323E-1,-9.273163E-2,2.5677511E-2,2.642E-1,-3.593809E-1,1.7994696E-1,-3.885073E-1,-2.5001995E-2,-3.4240767E-1,1.2892883E-1,4.795699E-3,2.4438721E-1],"split_indices":[16,22,18,2,18,18,17,11,0,23,23,12,12,1,21,0,0,0,13,21,0,0,1,13,11,16,0,7,23,0,0,0,0,0,0,0,0,0,0,0,0,0,0,0,0],"split_type":[0,0,0,0,0,0,0,0,0,0,0,0,0,0,0,0,0,0,0,0,0,0,0,0,0,0,0,0,0,0,0,0,0,0,0,0,0,0,0,0,0,0,0,0,0],"sum_hessian":[4.180563E2,3.575541E2,6.050221E1,1.4513738E1,3.4304037E2,2.959086E1,3.0911348E1,3.2439404E0,1.1269797E1,3.330517E2,9.988667E0,5.0311394E0,2.4559721E1,8.0856905E0,2.2825657E1,1.4813488E0,1.7625916E0,2.028091E0,3.3102362E2,4.037172E0,5.9514947E0,2.4560163E0,2.5751228E0,2.0966654E1,3.5930676E0,6.72134E0,1.3643498E0,1.2171945E1,1.0653713E1,1.5376634E2,1.7725728E2,2.639757E0,1.3974149E0,1.2591534E0,1.3159695E0,1.7362157E0,1.9230438E1,2.1158795E0,1.4771882E0,5.6282206E0,1.0931199E0,3.931046E0,8.240898E0,1.3249713E0,9.328742E0],"tree_param":{"num_deleted":"0","num_feature":"26","num_nodes":"45","size_leaf_vector":"1"}},{"base_weights":[-1.0063392E-2,-2.6284245E-1,-2.2995446E-3,-2.7836952E-2,2.8130412E-1,-8.394744E-4,-4.1977614E-1,-7.555431E-3,8.2572234E-1,1.566856E-2,-7.8313524E-1,-9.395489E-1,3.8117623E-1,2.7130485E-1,-1.03221E0,2.927539E-1,-1.2791498E-2,-2.4289147E-3,1.5388303E-1,2.9136328E-2,-3.8762236E-1,-6.4479E-2,-4.312113E-1,-7.5905554E-2,2.164745E-1,-1.4655456E-1,1.7957449E-1,-3.6497362E-2,-4.547078E-1],"categories":[],"categories_nodes":[],"categories_segments":[],"categories_sizes":[],"default_left":[0,0,0,0,0,0,0,0,0,0,0,0,0,0,0,0,0,0,0,0,0,0,0,0,0,0,0,0,0],"id":26,"left_children":[1,-1,3,5,7,9,11,13,15,17,19,21,23,25,27,-1,-1,-1,-1,-1,-1,-1,-1,-1,-1,-1,-1,-1,-1],"loss_changes":[2.7303617E0,0E0,2.931977E0,3.928567E0,5.265453E0,4.5112996E0,1.0318834E1,6.8064055E0,1.5540843E0,4.047702E0,3.3596683E0,5.0293474E0,2.3689277E0,4.9540534E0,2.0583458E0,0E0,0E0,0E0,0E0,0E0,0E0,0E0,0E0,0E0,0E0,0E0,0E0,0E0,0E0],"parents":[2147483647,0,0,2,2,3,3,4,4,5,5,6,6,7,7,8,8,9,9,10,10,11,11,12,12,13,13,14,14],"right_children":[2,-1,4,6,8,10,12,14,16,18,20,22,24,26,28,-1,-1,-1,-1,-1,-1,-1,-1,-1,-1,-1,-1,-1,-1],"split_conditions":[8E0,-2.6284245E-1,1.63E2,1.97E2,1.84E2,1.49E2,5.57E-1,9E1,1.69E2,1.86E2,6.67E-1,6.9E1,1.63E2,3.55E-1,3.5E1,2.927539E-1,-1.2791498E-2,-2.4289147E-3,1.5388303E-1,2.9136328E-2,-3.8762236E-1,-6.4479E-2,-4.312113E-1,-7.5905554E-2,2.164745E-1,-1.4655456E-1,1.7957449E-1,-3.6497362E-2,-4.547078E-1],"split_indices":[11,0,14,10,10,14,25,17,9,10,23,14,9,22,1,0,0,0,0,0,0,0,0,0,0,0,0,0,0],"split_type":[0,0,0,0,0,0,0,0,0,0,0,0,0,0,0,0,0,0,0,0,0,0,0,0,0,0,0,0,0],"sum_hessian":[4.053558E2,2.6077292E0,4.0274808E2,3.7030536E2,3.244271E1,3.473794E2,2.2925976E1,2.1840574E1,1.0602137E1,3.411602E2,6.2192035E0,1.3798494E1,9.127481E0,1.7746168E1,4.094406E0,8.933853E0,1.668283E0,3.265385E2,1.4621673E1,2.5748823E0,3.6443214E0,6.2023005E0,7.596194E0,3.277684E0,5.8497977E0,5.194267E0,1.2551902E1,1.854125E0,2.240281E0],"tree_param":{"num_deleted":"0","num_feature":"26","num_nodes":"29","size_leaf_vector":"1"}},{"base_weights":[-8.695336E-3,2.6352286E-1,-3.2788377E-2,-2.818109E-1,4.6958384E-1,-6.063332E-1,-1.1264127E-2,-2.0418565E-1,9.1594106E-1,1.2360711E-1,-1.0472276E0,6.9104993E-1,-2.808641E-2,-3.3633158E-1,5.217249E-1,1.0757351E0,-8.589642E-2,-2.3155902E-1,2.4637729E-1,-2.8961716E-2,-3.7595493E-1,1.9368015E-1,2.915217E-1,-2.7195734E-1,1.4856521E-2,-1.2093481E-1,2.6297662E-1,1.0425552E-1,3.395327E-1,2.1375237E-1,-9.01839E-2,-2.003309E-1,3.0678552E-2,8.865007E-2,-1.5942309E-2],"categories":[],"categories_nodes":[],"categories_segments":[],"categories_sizes":[],"default_left":[0,0,0,0,0,0,0,0,0,0,0,0,0,0,0,0,0,0,0,0,0,0,0,0,0,0,0,0,0,0,0,0,0,0,0],"id":27,"left_children":[1,3,5,-1,7,9,11,13,15,17,19,21,23,-1,25,27,-1,-1,-1,-1,-1,29,-1,31,33,-1,-1,-1,-1,-1,-1,-1,-1,-1,-1],"loss_changes":[2.6366894E0,8.544436E0,4.5486803E0,0E0,8.781447E0,4.418956E0,4.233465E0,8.708892E0,3.6454058E0,4.3282228E0,1.5266972E0,9.8207664E-1,3.6621122E0,0E0,2.813077E0,2.4103737E-1,0E0,0E0,0E0,0E0,0E0,1.3100247E0,0E0,7.8224945E0,5.701526E0,0E0,0E0,0E0,0E0,0E0,0E0,0E0,0E0,0E0,0E0],"parents":[2147483647,0,0,1,1,2,2,4,4,5,5,6,6,7,7,8,8,9,9,10,10,11,11,12,12,14,14,15,15,21,21,23,23,24,24],"right_children":[2,4,6,-1,8,10,12,14,16,18,20,22,24,-1,26,28,-1,-1,-1,-1,-1,30,-1,32,34,-1,-1,-1,-1,-1,-1,-1,-1,-1,-1],"split_conditions":[4.41E-1,1.13E2,4.56E-1,-2.818109E-1,5.3E-1,2.7E1,4.59E-1,7.9E1,4.29E2,4.03E2,8.7E1,3.6E1,4.86E-1,-3.3633158E-1,3.6E1,1.9E1,-8.589642E-2,-2.3155902E-1,2.4637729E-1,-2.8961716E-2,-3.7595493E-1,2.4E1,2.915217E-1,1.4E1,1.25E2,-1.2093481E-1,2.6297662E-1,1.0425552E-1,3.395327E-1,2.1375237E-1,-9.01839E-2,-2.003309E-1,3.0678552E-2,8.865007E-2,-1.5942309E-2],"split_indices":[21,13,21,0,24,15,21,17,4,4,12,0,21,0,0,11,0,0,0,0,0,17,0,16,13,0,0,0,0,0,0,0,0,0,0],"split_type":[0,0,0,0,0,0,0,0,0,0,0,0,0,0,0,0,0,0,0,0,0,0,0,0,0,0,0,0,0,0,0,0,0,0,0],"sum_hessian":[3.997049E2,3.1691935E1,3.6801297E2,4.1145163E0,2.7577417E1,1.2328642E1,3.5568433E2,1.1205475E1,1.6371944E1,4.913517E0,7.415125E0,7.382737E0,3.4830157E2,4.7107596E0,6.494715E0,1.4544111E1,1.8278328E0,2.1051161E0,2.808401E0,1.5818869E0,5.833238E0,3.2730465E0,4.1096907E0,5.1350647E1,2.9695093E2,1.7632873E0,4.7314277E0,1.5538514E0,1.2990259E1,1.3815032E0,1.8915434E0,2.457412E1,2.6776527E1,5.7263542E1,2.396874E2],"tree_param":{"num_deleted":"0","num_feature":"26","num_nodes":"35","size_leaf_vector":"1"}},{"base_weights":[-6.490793E-3,-2.2459228E-2,4.0334523E-1,4.8683574E-3,-6.5006435E-1,5.6072825E-1,-1.8503328E-1,-1.7195536E-2,3.8143292E-1,-7.281532E-2,-1.3014396E0,9.424614E-2,8.113061E-1,-2.732791E-1,1.8541521E-1,9.615939E-3,-3.2709745E-1,-2.9522058E-1,5.978192E-1,-3.6092776E-1,3.3814E-1,-1.687719E0,5.66474E-2,5.7058316E-1,-2.7764314E-1,2.8854752E-1,7.31846E-2,1.0720294E-2,-1.3246906E-1,-2.642627E-1,3.544724E-2,2.405196E-1,5.1754555E-3,-1.9992799E-1,1.8807457E-1,-1.4842905E-1,-5.7645404E-1,3.5145886E-2,2.2221862E-1],"categories":[],"categories_nodes":[],"categories_segments":[],"categories_sizes":[],"default_left":[0,0,0,0,0,0,0,0,0,0,0,0,0,0,0,0,0,0,0,0,0,0,0,0,0,0,0,0,0,0,0,0,0,0,0,0,0,0,0],"id":28,"left_children":[1,3,5,7,9,11,13,15,17,19,21,23,25,-1,-1,27,29,-1,31,-1,33,35,-1,37,-1,-1,-1,-1,-1,-1,-1,-1,-1,-1,-1,-1,-1,-1,-1],"loss_changes":[2.5771573E0,6.4972014E0,1.4713562E0,3.0294666E0,5.8485727E0,1.3145478E0,2.8182523E0,2.8668406E0,6.5513434E0,4.7913275E0,4.5596523E0,3.097566E0,4.1525936E-1,0E0,0E0,3.765242E0,6.877976E0,0E0,2.1221542E0,0E0,2.6523964E0,7.0915794E-1,0E0,2.3912072E-1,0E0,0E0,0E0,0E0,0E0,0E0,0E0,0E0,0E0,0E0,0E0,0E0,0E0,0E0,0E0],"parents":[2147483647,0,0,1,1,2,2,3,3,4,4,5,5,6,6,7,7,8,8,9,9,10,10,11,11,12,12,15,15,16,16,18,18,20,20,21,21,23,23],"right_children":[2,4,6,8,10,12,14,16,18,20,22,24,26,-1,-1,28,30,-1,32,-1,34,36,-1,38,-1,-1,-1,-1,-1,-1,-1,-1,-1,-1,-1,-1,-1,-1,-1],"split_conditions":[9.9E1,8.6E1,5.11E-1,7.9E1,6.2E1,4.8E-1,1.37E2,1.8E2,7.5E1,2.5E1,1.72E2,4.46E-1,1.09E2,-2.732791E-1,1.8541521E-1,2.23E2,1.94E2,-2.9522058E-1,8E1,-3.6092776E-1,1.65E2,7E0,5.66474E-2,1E1,-2.7764314E-1,2.8854752E-1,7.31846E-2,1.0720294E-2,-1.3246906E-1,-2.642627E-1,3.544724E-2,2.405196E-1,5.1754555E-3,-1.9992799E-1,1.8807457E-1,-1.4842905E-1,-5.7645404E-1,3.5145886E-2,2.2221862E-1],"split_indices":[7,7,21,7,17,21,12,8,9,15,14,21,7,0,0,3,8,0,17,0,3,16,0,16,0,0,0,0,0,0,0,0,0,0,0,0,0,0,0],"split_type":[0,0,0,0,0,0,0,0,0,0,0,0,0,0,0,0,0,0,0,0,0,0,0,0,0,0,0,0,0,0,0,0,0,0,0,0,0,0,0],"sum_hessian":[3.9140927E2,3.7764047E2,1.3768801E1,3.6283398E2,1.4806507E1,1.0900155E1,2.8686457E0,3.436528E2,1.9181171E1,8.439344E0,6.3671627E0,4.2899637E0,6.610191E0,1.4361962E0,1.4324493E0,3.1718057E2,2.6472223E1,2.1384962E0,1.7042677E1,1.7363095E0,6.7030354E0,4.951284E0,1.4158784E0,3.2242792E0,1.0656847E0,4.6747236E0,1.9354672E0,3.0069446E2,1.6486132E1,1.1362253E1,1.510997E1,1.23307905E1,4.711886E0,1.204646E0,5.4983892E0,1.3219837E0,3.6293004E0,1.3404868E0,1.8837924E0],"tree_param":{"num_deleted":"0","num_feature":"26","num_nodes":"39","size_leaf_vector":"1"}},{"base_weights":[-6.694205E-3,-9.363704E-2,8.174887E-2,1.5953274E-2,-4.212798E-1,7.87732E-1,4.7360577E-2,-1.1904941E-1,3.664575E-1,2.8702232E-1,-6.9341666E-1,8.9772403E-1,1.0186353E-2,-1.8190672E-1,1.2131733E-1,-8.68483E-3,-8.4259725E-1,-5.192913E-1,7.1676946E-1,-2.3262762E-1,5.0854194E-1,-9.990413E-1,-6.297221E-2,2.902447E-2,3.0227655E-1,3.1431768E-2,-7.750294E-1,5.8539826E-1,4.780962E-3,3.318052E-2,-2.2749618E-1,9.466504E-2,-3.4434575E-1,-3.015617E-1,1.3493116E-1,-2.1218179E-1,2.4084322E-1,-1.1833819E-2,2.662232E-1,-3.9155805E-1,-7.400847E-2,-2.882037E-1,1.146748E-1,7.592772E-2,-1.8842442E-1,-3.1897822E-1,1.9964688E-1,2.445148E-2,3.2331753E-1,-1.973282E-1,4.2726416E-2],"categories":[],"categories_nodes":[],"categories_segments":[],"categories_sizes":[],"default_left":[0,0,0,0,0,0,0,0,0,0,0,0,0,0,0,0,0,1,0,0,0,0,0,0,0,0,0,0,0,0,0,0,0,0,0,0,0,0,0,0,0,0,0,0,0,0,0,0,0,0,0],"id":29,"left_children":[1,3,5,7,9,11,13,15,17,19,21,23,-1,25,27,29,31,33,35,-1,37,39,41,-1,-1,43,45,47,49,-1,-1,-1,-1,-1,-1,-1,-1,-1,-1,-1,-1,-1,-1,-1,-1,-1,-1,-1,-1,-1,-1],"loss_changes":[2.9920425E0,7.0509343E0,4.6465664E0,7.0455947E0,9.68424E0,7.071748E-1,3.1594632E0,8.58355E0,1.3215536E1,3.7753963E0,6.843237E0,5.822964E-1,0E0,5.7855277E0,7.595936E0,8.52119E0,5.391534E0,6.248971E0,4.2535114E0,0E0,2.6283965E0,5.2227745E0,5.471049E0,0E0,0E0,5.194645E0,5.7246056E0,6.9061136E0,1.0426777E1,0E0,0E0,0E0,0E0,0E0,0E0,0E0,0E0,0E0,0E0,0E0,0E0,0E0,0E0,0E0,0E0,0E0,0E0,0E0,0E0,0E0,0E0],"parents":[2147483647,0,0,1,1,2,2,3,3,4,4,5,5,6,6,7,7,8,8,9,9,10,10,11,11,13,13,14,14,15,15,16,16,17,17,18,18,20,20,21,21,22,22,25,25,26,26,27,27,28,28],"right_children":[2,4,6,8,10,12,14,16,18,20,22,24,-1,26,28,30,32,34,36,-1,38,40,42,-1,-1,44,46,48,50,-1,-1,-1,-1,-1,-1,-1,-1,-1,-1,-1,-1,-1,-1,-1,-1,-1,-1,-1,-1,-1,-1],"split_conditions":[2.29E2,8.8E1,2.8E1,7.5E1,4.19E-1,1.33E2,4.48E-1,6.9E1,3.4E1,1.9E1,2E2,1.2E2,1.0186353E-2,1.8E2,1.31E2,3.5E1,1E2,4.17E-1,5.32E-1,-2.3262762E-1,2.16E2,1.28E2,5.96E-1,2.902447E-2,3.0227655E-1,4.35E-1,2.55E2,1.63E2,1.77E2,3.318052E-2,-2.2749618E-1,9.466504E-2,-3.4434575E-1,-3.015617E-1,1.3493116E-1,-2.1218179E-1,2.4084322E-1,-1.1833819E-2,2.662232E-1,-3.9155805E-1,-7.400847E-2,-2.882037E-1,1.146748E-1,7.592772E-2,-1.8842442E-1,-3.1897822E-1,1.9964688E-1,2.445148E-2,3.2331753E-1,-1.973282E-1,4.2726416E-2],"split_indices":[6,9,0,9,20,5,20,9,0,11,13,5,0,8,5,1,13,22,24,0,8,9,24,0,0,20,3,12,3,0,0,0,0,0,0,0,0,0,0,0,0,0,0,0,0,0,0,0,0,0,0],"split_type":[0,0,0,0,0,0,0,0,0,0,0,0,0,0,0,0,0,0,0,0,0,0,0,0,0,0,0,0,0,0,0,0,0,0,0,0,0,0,0,0,0,0,0,0,0,0,0,0,0,0,0],"sum_hessian":[3.8711246E2,1.9518228E2,1.9193018E2,1.4697368E2,4.8208614E1,7.897129E0,1.8403304E2,1.0658211E2,4.0391567E1,1.3365907E1,3.4842705E1,6.724863E0,1.1722662E0,4.45299E1,1.3950314E2,9.335451E1,1.3227596E1,1.1310666E1,2.9080902E1,1.8745846E0,1.14913225E1,2.3072863E1,1.1769843E1,1.0379826E0,5.6868806E0,3.34466E1,1.1083299E1,2.7192312E1,1.1231083E2,8.127414E1,1.2080371E1,2.751885E0,1.0475712E1,7.508433E0,3.8022332E0,1.2455779E0,2.7835325E1,5.063484E0,6.4278383E0,1.5877149E1,7.195713E0,3.51823E0,8.251614E0,2.5494284E1,7.952317E0,9.453628E0,1.6296712E0,1.4014308E1,1.3178004E1,1.8668737E1,9.364209E1],"tree_param":{"num_deleted":"0","num_feature":"26","num_nodes":"51","size_leaf_vector":"1"}},{"base_weights":[-6.6097705E-3,-2.1509072E-2,4.978049E-1,-1.0005203E-2,-6.9652873E-1,-1.4446488E-1,7.0437914E-1,-6.650289E-2,1.3034469E-1,-6.152169E-2,-4.0202639E-1,-1.7955926E-1,1.3286647E-1,2.526004E-1,-8.805835E-3,-1.5636021E-2,-1.0191909E0,2.8020155E-1,7.5586915E-2,-2.2959846E-1,2.006601E-1,-1.3914895E-2,1.6080505E-1,-4.3431342E-1,4.6969485E-2,-1.179533E-1,4.8634544E-2],"categories":[],"categories_nodes":[],"categories_segments":[],"categories_sizes":[],"default_left":[0,0,0,0,0,0,0,0,0,0,0,0,0,0,0,0,0,0,0,0,0,0,0,0,0,0,0],"id":30,"left_children":[1,3,5,7,9,11,13,15,17,19,-1,-1,-1,-1,-1,21,23,-1,25,-1,-1,-1,-1,-1,-1,-1,-1],"loss_changes":[2.8009121E0,2.8007486E0,1.5204802E0,2.8357248E0,2.3875875E0,1.180407E0,8.588953E-1,1.2334698E1,4.4473596E0,2.6145868E0,0E0,0E0,0E0,0E0,0E0,4.1458406E0,6.7273874E0,0E0,4.0064855E0,0E0,0E0,0E0,0E0,0E0,0E0,0E0,0E0],"parents":[2147483647,0,0,1,1,2,2,3,3,4,4,5,5,6,6,7,7,8,8,9,9,15,15,16,16,18,18],"right_children":[2,4,6,8,10,12,14,16,18,20,-1,-1,-1,-1,-1,22,24,-1,26,-1,-1,-1,-1,-1,-1,-1,-1],"split_conditions":[8.2E1,1.11E2,3.4E1,5.36E2,1.34E2,1.81E2,2.92E2,1.87E2,4.1E1,5.3E1,-4.0202639E-1,-1.7955926E-1,1.3286647E-1,2.526004E-1,-8.805835E-3,3.07E2,5.73E-1,2.8020155E-1,2.6E1,-2.2959846E-1,2.006601E-1,-1.3914895E-2,1.6080505E-1,-4.3431342E-1,4.6969485E-2,-1.179533E-1,4.8634544E-2],"split_indices":[16,18,0,19,10,3,4,3,17,16,0,0,0,0,0,13,20,0,15,0,0,0,0,0,0,0,0],"split_type":[0,0,0,0,0,0,0,0,0,0,0,0,0,0,0,0,0,0,0,0,0,0,0,0,0,0,0],"sum_hessian":[3.7026367E2,3.605706E2,9.693104E0,3.5552643E2,5.0441556E0,2.432078E0,7.261026E0,2.5386108E2,1.0166533E2,3.0904095E0,1.953746E0,1.3609418E0,1.0711361E0,5.9899616E0,1.2710644E0,2.419586E2,1.1902483E1,5.4608808E0,9.6204445E1,1.5494827E0,1.5409269E0,2.300523E2,1.1906292E1,8.553676E0,3.3488076E0,1.4438781E1,8.176566E1],"tree_param":{"num_deleted":"0","num_feature":"26","num_nodes":"27","size_leaf_vector":"1"}},{"base_weights":[-4.6705897E-3,1.070028E-1,-5.7191372E-2,-1.6626718E-2,4.4620958E-1,-8.693297E-1,-3.3164766E-2,3.5257152E-1,-1.5814109E-1,5.5517274E-1,-4.2651352E-1,-3.0628333E-2,-2.9737595E-1,-1.8654743E-1,6.538983E-2,-4.3473908E-1,4.9987018E-1,-4.370134E-1,1.3945991E-1,-2.2087458E-1,6.363613E-1,-2.726753E-1,9.6107684E-2,-6.4047843E-1,2.8651726E-2,8.152953E-1,8.105816E-3,1.21587545E-1,-2.4405037E-1,1.9512783E-1,-5.6799725E-2,-2.285211E-1,2.5245385E-2,1.7627724E-1,-9.179819E-2,2.3165537E-1,-5.442579E-2,-2.9779994E-1,8.398472E-2,-2.745693E-1,3.9995883E-2,-1.5091224E-1,3.104492E-1,-1.9826822E-1,2.0424617E-2],"categories":[],"categories_nodes":[],"categories_segments":[],"categories_sizes":[],"default_left":[0,0,0,0,0,0,0,0,0,0,0,0,0,0,0,0,0,0,0,0,0,0,0,0,0,0,0,0,0,0,0,0,0,0,0,0,0,0,0,0,0,0,0,0,0],"id":31,"left_children":[1,3,5,7,9,11,13,15,17,19,21,-1,-1,23,25,27,29,31,33,-1,35,-1,-1,37,39,41,43,-1,-1,-1,-1,-1,-1,-1,-1,-1,-1,-1,-1,-1,-1,-1,-1,-1,-1],"loss_changes":[2.1501558E0,4.9255853E0,4.835269E0,4.5968227E0,3.2191834E0,5.6512165E-1,3.6878319E0,3.046195E0,5.332834E0,3.4373865E0,1.7491561E0,0E0,0E0,9.335377E0,6.384405E0,1.7230861E0,2.303626E0,5.654753E0,6.4653606E0,0E0,3.1587715E0,0E0,0E0,1.0235319E1,6.6088896E0,3.573411E0,5.6313457E0,0E0,0E0,0E0,0E0,0E0,0E0,0E0,0E0,0E0,0E0,0E0,0E0,0E0,0E0,0E0,0E0,0E0,0E0],"parents":[2147483647,0,0,1,1,2,2,3,3,4,4,5,5,6,6,7,7,8,8,9,9,10,10,13,13,14,14,15,15,16,16,17,17,18,18,20,20,23,23,24,24,25,25,26,26],"right_children":[2,4,6,8,10,12,14,16,18,20,22,-1,-1,24,26,28,30,32,34,-1,36,-1,-1,38,40,42,44,-1,-1,-1,-1,-1,-1,-1,-1,-1,-1,-1,-1,-1,-1,-1,-1,-1,-1],"split_conditions":[9.23E2,8.86E2,7.9E1,2.81E-1,1.5E2,3.2E1,4.3E1,4E1,5.87E-1,6.4E1,4.01E-1,-3.0628333E-2,-2.9737595E-1,6.4E1,3.13E-1,5.98E-1,2.8E1,3.2E1,5.74E-1,-2.2087458E-1,6.7E1,-2.726753E-1,9.6107684E-2,1.78E2,1.18E2,4.4E1,7.03E-1,1.21587545E-1,-2.4405037E-1,1.9512783E-1,-5.6799725E-2,-2.285211E-1,2.5245385E-2,1.7627724E-1,-9.179819E-2,2.3165537E-1,-5.442579E-2,-2.9779994E-1,8.398472E-2,-2.745693E-1,3.9995883E-2,-1.5091224E-1,3.104492E-1,-1.9826822E-1,2.0424617E-2],"split_indices":[2,2,12,22,10,0,7,17,24,10,22,0,0,17,22,23,15,15,25,0,17,0,0,5,12,15,23,0,0,0,0,0,0,0,0,0,0,0,0,0,0,0,0,0,0],"split_type":[0,0,0,0,0,0,0,0,0,0,0,0,0,0,0,0,0,0,0,0,0,0,0,0,0,0,0,0,0,0,0,0,0,0,0,0,0,0,0,0,0,0,0,0,0],"sum_hessian":[3.6455374E2,1.1627798E2,2.4827577E2,8.5915596E1,3.0362375E1,6.1231E0,2.4215266E2,2.3393265E1,6.2522335E1,2.731575E1,3.0466256E0,1.0915564E0,5.0315433E0,9.437772E1,1.4777495E2,3.3793337E0,2.0013931E1,3.2034958E1,3.0487377E1,1.1384627E0,2.6177288E1,1.719219E0,1.3274066E0,2.971728E1,6.4660446E1,9.548106E0,1.3822684E2,1.0284222E0,2.3509114E0,1.6471914E1,3.5420172E0,1.9452826E1,1.2582131E1,1.5038958E1,1.544842E1,2.249663E1,3.6806579E0,2.1436451E1,8.2808275E0,5.6814694E0,5.8978973E1,1.1786696E0,8.369436E0,1.0548231E1,1.27678604E2],"tree_param":{"num_deleted":"0","num_feature":"26","num_nodes":"45","size_leaf_vector":"1"}},{"base_weights":[-6.7094243E-3,-2.1992568E-2,4.3067497E-1,1.5812593E-2,-2.880944E-1,6.437733E-1,-3.0540735E-1,-5.320608E-3,8.193701E-1,-4.769449E-1,4.5210734E-1,-6.653344E-2,8.231222E-1,7.090535E-2,-1.955326E-1,-6.821284E-2,2.0985042E-1,2.9098123E-1,-7.3001196E-5,-7.3526293E-1,1.4150128E-1,-2.1602911E-1,7.4994534E-1,2.6591843E-1,6.169889E-2,-6.503757E-3,-1.4057721E-1,-2.825532E-3,1.3106538E-1,2.0777235E-2,-3.2853732E-1,2.1981199E-1,-1.07053824E-1,2.7817124E-1,5.2863315E-2],"categories":[],"categories_nodes":[],"categories_segments":[],"categories_sizes":[],"default_left":[0,0,0,0,0,0,0,0,0,0,0,0,0,0,0,0,0,0,0,0,0,0,0,0,0,0,0,0,0,0,0,0,0,0,0],"id":32,"left_children":[1,3,5,7,9,11,13,15,17,19,21,-1,23,-1,-1,25,27,-1,-1,29,31,-1,33,-1,-1,-1,-1,-1,-1,-1,-1,-1,-1,-1,-1],"loss_changes":[2.3653345E0,3.4398859E0,2.0706732E0,5.098064E0,6.1610146E0,1.6707869E0,7.846469E-1,3.9828663E0,9.4959354E-1,5.595284E0,3.737638E0,0E0,1.3625145E-1,0E0,0E0,4.23184E0,3.3182943E0,0E0,0E0,7.142062E0,3.4922485E0,0E0,6.293106E-1,0E0,0E0,0E0,0E0,0E0,0E0,0E0,0E0,0E0,0E0,0E0,0E0],"parents":[2147483647,0,0,1,1,2,2,3,3,4,4,5,5,6,6,7,7,8,8,9,9,10,10,12,12,15,15,16,16,19,19,20,20,22,22],"right_children":[2,4,6,8,10,12,14,16,18,20,22,-1,24,-1,-1,26,28,-1,-1,30,32,-1,34,-1,-1,-1,-1,-1,-1,-1,-1,-1,-1,-1,-1],"split_conditions":[7.12E2,4.42E2,1.97E2,4.39E2,8.49E-1,2.4E1,3.63E-1,7.5E1,7.1E1,5.3E1,5.67E-1,-6.653344E-2,8.38E-1,7.090535E-2,-1.955326E-1,2.72E2,3.35E2,2.9098123E-1,-7.3001196E-5,1.077E3,4.64E-1,-2.1602911E-1,1.97E2,2.6591843E-1,6.169889E-2,-6.503757E-3,-1.4057721E-1,-2.825532E-3,1.3106538E-1,2.0777235E-2,-3.2853732E-1,2.1981199E-1,-1.07053824E-1,2.7817124E-1,5.2863315E-2],"split_indices":[19,4,9,4,23,15,22,11,18,15,24,0,23,0,0,6,4,0,0,2,21,0,8,0,0,0,0,0,0,0,0,0,0,0,0],"split_type":[0,0,0,0,0,0,0,0,0,0,0,0,0,0,0,0,0,0,0,0,0,0,0,0,0,0,0,0,0,0,0,0,0,0,0],"sum_hessian":[3.514309E2,3.4048343E2,1.0947498E1,2.989518E2,4.1531593E1,8.586952E0,2.360546E0,2.922589E2,6.6928997E0,3.3372734E1,8.158858E0,1.4332763E0,7.153676E0,1.0444845E0,1.3160617E0,2.2668443E2,6.557449E1,5.4992495E0,1.1936499E0,2.3407003E1,9.965731E0,1.3657831E0,6.7930756E0,6.093689E0,1.059987E0,2.0402582E2,2.2658617E1,3.3845314E1,3.1729177E1,7.483698E0,1.59233055E1,4.3431E0,5.622631E0,4.7187653E0,2.0743105E0],"tree_param":{"num_deleted":"0","num_feature":"26","num_nodes":"35","size_leaf_vector":"1"}},{"base_weights":[-1.4274891E-3,-3.698882E-2,2.175741E-1,-1.8330965E-2,-7.9167247E-1,6.5814364E-1,-5.8975577E-2,-3.085644E-2,2.4954706E-1,-3.7393963E-1,1.6848187E-1,-2.512616E-1,8.9227444E-1,-1.0692657E0,7.4333645E-2,2.1822026E-1,-7.50149E-2,-8.344735E-2,1.0069079E0,-9.722088E-2,-3.825297E-1,-3.0424145E-1,1.8838191E-1,-6.140075E-3,1.9284718E-1,-7.0832044E-2,7.2998037E-3,3.1353673E-1,9.222141E-2,-2.6520485E-1,9.366562E-2],"categories":[],"categories_nodes":[],"categories_segments":[],"categories_sizes":[],"default_left":[0,0,0,0,0,0,0,0,0,0,0,0,0,0,0,0,0,0,0,0,0,0,0,0,0,0,0,0,0,0,0],"id":33,"left_children":[1,3,5,7,9,11,13,15,-1,-1,-1,-1,17,19,21,23,25,-1,27,-1,-1,-1,29,-1,-1,-1,-1,-1,-1,-1,-1],"loss_changes":[2.721242E0,4.2177367E0,5.986128E0,3.1599863E0,5.1485257E0,7.3680487E0,4.241983E0,3.2173836E0,0E0,0E0,0E0,0E0,2.5383825E0,1.4936113E-1,3.6965404E0,4.4808035E0,3.97395E0,0E0,9.430313E-2,0E0,0E0,0E0,3.7824903E0,0E0,0E0,0E0,0E0,0E0,0E0,0E0,0E0],"parents":[2147483647,0,0,1,1,2,2,3,3,4,4,5,5,6,6,7,7,12,12,13,13,14,14,15,15,16,16,18,18,22,22],"right_children":[2,4,6,8,10,12,14,16,-1,-1,-1,-1,18,20,22,24,26,-1,28,-1,-1,-1,30,-1,-1,-1,-1,-1,-1,-1,-1],"split_conditions":[1.34E2,1.22E2,3.3E1,1.05E2,4.29E-1,3.31E-1,6.8E1,7.7E1,2.4954706E-1,-3.7393963E-1,1.6848187E-1,-2.512616E-1,1.3E1,2.17E2,9.1E1,7.3E1,1.16E2,-8.344735E-2,1.56E2,-9.722088E-2,-3.825297E-1,-3.0424145E-1,1.6E1,-6.140075E-3,1.9284718E-1,-7.0832044E-2,7.2998037E-3,3.1353673E-1,9.222141E-2,-2.6520485E-1,9.366562E-2],"split_indices":[14,14,1,17,22,22,17,5,0,0,0,0,11,6,10,5,5,0,9,0,0,0,11,0,0,0,0,0,0,0,0],"split_type":[0,0,0,0,0,0,0,0,0,0,0,0,0,0,0,0,0,0,0,0,0,0,0,0,0,0,0,0,0,0,0],"sum_hessian":[3.4738193E2,2.9956918E2,4.781274E1,2.9334128E2,6.2279134E0,1.7906374E1,2.9906368E1,2.900319E2,3.3093858E0,4.7204523E0,1.5074611E0,2.0748057E0,1.5831568E1,2.6677506E0,2.7238617E1,4.3082485E1,2.4694942E2,1.2849951E0,1.4546573E1,1.1345752E0,1.5331755E0,1.8348361E0,2.540378E1,2.8188414E1,1.4894071E1,9.367653E1,1.5327289E2,1.3324548E1,1.2220243E0,1.9943776E0,2.3409403E1],"tree_param":{"num_deleted":"0","num_feature":"26","num_nodes":"31","size_leaf_vector":"1"}},{"base_weights":[-1.855124E-3,-3.4121543E-2,1.8243949E-1,-2.5897136E-1,-2.0027462E-2,5.1178193E-1,5.4655906E-2,1.4647087E-2,-3.0422124E-1,8.649981E-2,2.6225165E-1,-4.5989987E-1,2.8803876E-1,1.4535816E-1,-6.0342554E-2,1.7093803E-1,-7.80115E-1,1.9733563E-1,-3.5190016E-1,-6.29446E-1,1.770288E-1,-5.142361E-2,5.2241397E-1,-1.3675302E-3,1.5122366E-1,-1.3339022E-1,8.174513E-3,1.4584988E-1,-1.23120025E-1,-3.2360768E-1,5.2003123E-2,-2.5520137E-1,1.8211046E-1,8.5484296E-2,-2.2767715E-1,-1.8838793E-1,1.0781437E-1,-6.713303E-2,2.1583472E-1],"categories":[],"categories_nodes":[],"categories_segments":[],"categories_sizes":[],"default_left":[0,0,0,0,0,0,0,0,0,0,0,0,0,0,0,0,0,0,0,0,0,0,0,0,0,0,0,0,0,0,0,0,0,0,0,0,0,0,0],"id":34,"left_children":[1,3,5,-1,7,9,11,13,15,17,-1,19,21,23,25,27,29,-1,31,33,-1,35,37,-1,-1,-1,-1,-1,-1,-1,-1,-1,-1,-1,-1,-1,-1,-1,-1],"loss_changes":[2.0316575E0,3.3797407E0,2.1143951E0,0E0,2.8313184E0,2.0990837E0,4.6712904E0,2.52421E0,7.1976156E0,2.135355E0,0E0,2.539512E0,2.1445518E0,5.0492744E0,5.5249434E0,3.2145245E0,4.6815042E0,0E0,2.885166E0,1.5149617E0,0E0,3.016096E0,2.4891915E0,0E0,0E0,0E0,0E0,0E0,0E0,0E0,0E0,0E0,0E0,0E0,0E0,0E0,0E0,0E0,0E0],"parents":[2147483647,0,0,1,1,2,2,4,4,5,5,6,6,7,7,8,8,9,9,11,11,12,12,13,13,14,14,15,15,16,16,18,18,19,19,21,21,22,22],"right_children":[2,4,6,-1,8,10,12,14,16,18,-1,20,22,24,26,28,30,-1,32,34,-1,36,38,-1,-1,-1,-1,-1,-1,-1,-1,-1,-1,-1,-1,-1,-1,-1,-1],"split_conditions":[4.6E1,3.8E1,1.24E2,-2.5897136E-1,5.26E-1,3.81E2,5.52E-1,3.23E2,7.3E1,4.2E1,2.6225165E-1,1.74E2,8.9E1,2.12E2,3.57E2,1.16E2,1.134E3,1.9733563E-1,8.04E-1,2.1E2,1.770288E-1,3E0,1.32E2,-1.3675302E-3,1.5122366E-1,-1.3339022E-1,8.174513E-3,1.4584988E-1,-1.23120025E-1,-3.2360768E-1,5.2003123E-2,-2.5520137E-1,1.8211046E-1,8.5484296E-2,-2.2767715E-1,-1.8838793E-1,1.0781437E-1,-6.713303E-2,2.1583472E-1],"split_indices":[16,9,5,0,20,19,20,4,9,9,0,8,11,6,4,12,2,0,23,13,0,8,10,0,0,0,0,0,0,0,0,0,0,0,0,0,0,0,0],"split_type":[0,0,0,0,0,0,0,0,0,0,0,0,0,0,0,0,0,0,0,0,0,0,0,0,0,0,0,0,0,0,0,0,0,0,0,0,0,0,0],"sum_hessian":[3.3960764E2,2.897014E2,4.9906246E1,3.83526E0,2.8586612E2,1.311061E1,3.6795635E1,2.5562564E2,3.0240482E1,6.6017895E0,6.508821E0,1.1178662E1,2.5616974E1,9.284804E1,1.627776E2,1.5452569E1,1.4787913E1,2.6491802E0,3.9526095E0,9.969398E0,1.2092645E0,1.0781684E1,1.4835291E1,6.617815E1,2.6669886E1,2.9458181E1,1.3331943E2,1.0125674E1,5.3268943E0,1.1161366E1,3.6265461E0,2.6744483E0,1.2781612E0,1.0876304E0,8.881767E0,4.2660165E0,6.5156674E0,3.0706656E0,1.1764625E1],"tree_param":{"num_deleted":"0","num_feature":"26","num_nodes":"39","size_leaf_vector":"1"}},{"base_weights":[-8.361535E-4,5.101868E-2,-1.0773559E-1,3.7196446E-3,4.3321553E-1,-5.695633E-1,-4.8539564E-3,8.5806064E-2,-4.0175888E-1,-2.0067596E-1,5.5355537E-1,-2.9094923E-2,-9.9653995E-1,-1.9147754E-1,2.2935894E-1,2.1926613E-1,-9.597822E-2,-9.389753E-1,4.9026076E-2,-1.3112308E-1,6.2285846E-1,-2.4256997E-1,3.9844722E-1,-3.507411E-1,5.0050717E-2,6.8618365E-2,-1.2771344E0,-9.67254E-2,4.8747516E-1,3.746469E-2,2.1752189E-1,-8.917956E-2,1.0752595E-1,-3.3390686E-1,1.7605835E-1,1.7637205E-1,-1.4509484E-1,-6.781165E-2,2.1058589E-1,-1.22238986E-1,1.9741377E-1,1.1967296E-1,-1.3300313E-1,-4.7514807E-2,-4.7320268E-1,-2.21754E-1,7.1457684E-2,-2.1065938E-1,1.8889022E-1],"categories":[],"categories_nodes":[],"categories_segments":[],"categories_sizes":[],"default_left":[0,0,0,0,0,0,0,0,0,0,0,0,0,0,0,0,0,0,0,0,0,0,0,0,0,0,0,0,0,0,0,0,0,0,0,0,0,0,0,0,0,0,0,0,0,0,0,0,0],"id":35,"left_children":[1,3,5,7,9,11,13,15,17,-1,19,21,23,25,27,29,31,33,35,-1,37,-1,39,-1,-1,41,43,45,47,-1,-1,-1,-1,-1,-1,-1,-1,-1,-1,-1,-1,-1,-1,-1,-1,-1,-1,-1,-1],"loss_changes":[1.848234E0,4.057237E0,5.1716824E0,6.7181845E0,3.6485868E0,4.5476303E0,3.9809494E0,4.0925903E0,8.275866E0,0E0,1.8397079E0,3.5823925E0,2.4136944E0,1.4396703E1,3.4473877E0,4.543995E0,6.668582E0,4.7841177E0,5.861339E0,0E0,1.6191006E0,0E0,1.7300172E0,0E0,0E0,7.2500296E0,3.0566444E0,4.196198E0,4.2837133E0,0E0,0E0,0E0,0E0,0E0,0E0,0E0,0E0,0E0,0E0,0E0,0E0,0E0,0E0,0E0,0E0,0E0,0E0,0E0,0E0],"parents":[2147483647,0,0,1,1,2,2,3,3,4,4,5,5,6,6,7,7,8,8,10,10,11,11,12,12,13,13,14,14,15,15,16,16,17,17,18,18,20,20,22,22,25,25,26,26,27,27,28,28],"right_children":[2,4,6,8,10,12,14,16,18,-1,20,22,24,26,28,30,32,34,36,-1,38,-1,40,-1,-1,42,44,46,48,-1,-1,-1,-1,-1,-1,-1,-1,-1,-1,-1,-1,-1,-1,-1,-1,-1,-1,-1,-1],"split_conditions":[8.1E1,3.7E1,7.2E1,1.134E3,4.38E2,5.4E1,5.49E-1,1.06E2,1.25E2,-2.0067596E-1,1.085E3,1.9E2,7.9E1,5.27E-1,2.7E1,1.087E3,4.26E2,3.03E2,1.43E2,-1.3112308E-1,6.5E1,-2.4256997E-1,3E0,-3.507411E-1,5.0050717E-2,7.8E1,1.01E2,5.1E1,4.71E-1,3.746469E-2,2.1752189E-1,-8.917956E-2,1.0752595E-1,-3.3390686E-1,1.7605835E-1,1.7637205E-1,-1.4509484E-1,-6.781165E-2,2.1058589E-1,-1.22238986E-1,1.9741377E-1,1.1967296E-1,-1.3300313E-1,-4.7514807E-2,-4.7320268E-1,-2.21754E-1,7.1457684E-2,-2.1065938E-1,1.8889022E-1],"split_indices":[18,1,9,2,19,9,25,10,5,0,2,13,16,25,7,2,4,13,5,0,9,0,7,0,0,14,5,16,20,0,0,0,0,0,0,0,0,0,0,0,0,0,0,0,0,0,0,0,0],"split_type":[0,0,0,0,0,0,0,0,0,0,0,0,0,0,0,0,0,0,0,0,0,0,0,0,0,0,0,0,0,0,0,0,0,0,0,0,0,0,0,0,0,0,0,0,0,0,0,0,0],"sum_hessian":[3.3142892E2,2.2352435E2,1.0790457E2,1.9980685E2,2.3717505E1,1.8832195E1,8.907238E1,1.6682303E2,3.2983826E1,1.8859937E0,2.183151E1,8.782906E0,1.0049289E1,4.967401E1,3.9398373E1,9.607887E1,7.074415E1,1.4555062E1,1.8428762E1,1.0804597E0,2.075105E1,2.7953598E0,5.987546E0,8.74669E0,1.3025995E0,4.082917E1,8.84484E0,1.7683567E1,2.1714804E1,8.202067E1,1.4058206E1,4.9266243E1,2.147791E1,1.3307649E1,1.2474141E0,9.109479E0,9.3192835E0,1.6103042E0,1.9140747E1,1.320021E0,4.667525E0,2.4952152E1,1.5877018E1,2.1944816E0,6.6503587E0,5.646034E0,1.2037533E1,1.897321E0,1.9817484E1],"tree_param":{"num_deleted":"0","num_feature":"26","num_nodes":"49","size_leaf_vector":"1"}},{"base_weights":[-3.7961286E-3,1.8921819E-2,-2.83084E-1,-2.1826369E-1,4.5930207E-2,-7.7007097E-1,3.792818E-2,-5.698658E-1,1.4268714E-1,8.4691636E-2,-2.2072728E-1,-9.8730254E-1,1.2124858E-1,-7.044241E-1,2.9734322E-1,-8.2721895E-1,4.9147096E-2,8.544836E-1,-2.8169355E-1,4.8364952E-2,4.317517E-1,-3.4963244E-1,3.807766E-1,-3.6003655E-1,